
\data\
ngram 1=97
ngram 2=7931
ngram 3=86849

\1-grams:
-3.660167	!	-3.628666
-2.960068	"	-1.190812
-4.312202	#	-3.144594
-4.478833	$	-2.289618
-4.045693	%	-3.780624
-3.745291	&	-1.993246
-2.635038	'	-1.616066
-2.892148	(	-1.918093
-2.882495	)	-3.154887
-3.934279	*	-1.196338
-4.187807	+	-2.358608
-2.103707	,	-2.505389
-2.584465	-	-1.954756
-2.009624	.	-1.712739
-2.883244	/	-0.6026254
-2.531203	0	-0.4805827
-2.611557	1	-1.950656
-2.716768	2	-1.565742
-2.996168	3	-1.315666
-3.054665	4	-1.343851
-3.008348	5	-0.9384475
-3.077521	6	-3.218756
-3.149532	7	-2.980064
-3.11356	8	-3.006021
-2.918076	9	-1.944914
-2.843282	:	-2.065523
-3.355279	;	-3.158423
-4.44489	<	-3.458134
-2.004321	</s>
-99	<s>	-3.479632
-0.7888889	<w>	0
-3.680527	=	-1.631163
-3.855959	>	-4.282007
-3.392829	?	-1.979053
-4.1605	@	-2.222394
-2.53069	A	-1.561169
-2.778271	B	-1.966022
-2.542984	C	-2.372564
-2.791468	D	-2.549121
-2.678616	E	-1.572042
-2.894573	F	-1.567258
-2.966518	G	-3.03453
-2.854239	H	-3.441622
-2.501443	I	-2.264844
-3.159847	J	-3.673619
-3.291517	K	-1.988616
-2.813683	L	-3.916219
-2.71764	M	-2.045173
-2.786917	N	-3.392644
-2.887028	O	-2.289998
-2.699058	P	-2.190149
-3.904207	Q	-2.154952
-2.663258	R	-2.615052
-2.493438	S	-1.664261
-2.415556	T	-4.012542
-2.939236	U	-2.309256
-3.371268	V	-2.963172
-2.854678	W	-3.23669
-4.099225	X	-3.326319
-3.411692	Y	-3.523163
-4.132599	Z	-3.226321
-3.75222	[	-1.406705
-4.920833	\	-3.419873
-3.753419	]	-3.175048
-5.055692	^	-2.452515
-3.558747	_	-1.589881
-4.486558	`	-3.152292
-1.223512	a	-1.438031
-1.979575	b	-1.579645
-1.608415	c	-1.459635
-1.562117	d	-2.318671
-1.034547	e	-1.18603
-1.789518	f	-2.34956
-1.835305	g	-2.017387
-1.474159	h	-1.586558
-1.253935	i	-2.410221
-3.07261	j	-3.325844
-2.289312	k	-2.474463
-1.499306	l	-0.965497
-1.742735	m	-1.175176
-1.26337	n	-0.7368121
-1.233895	o	-1.507407
-1.793993	p	-0.4619708
-3.068523	q	-3.633762
-1.313202	r	-1.900125
-1.312064	s	0
-1.179003	t	0
-1.666092	u	-3.229419
-2.081176	v	-2.741915
-1.908782	w	-2.99997
-2.760952	x	-2.171003
-1.888501	y	-2.388045
-3.288735	z	-3.016527
-4.77563	{	-2.49232
-3.83133	|	-3.702861
-4.771856	}	-3.240487
-4.49752	~	-4.106898

\2-grams:
-1.010159	! !	-0.2886885
-1.01049	! "	-2.191509
-4.128755	! &
-1.748543	! '	-1.069764
-3.526695	! (	-0.703958
-1.294334	! )	-0.4288741
-3.827725	! *	-0.2428524
-2.214941	! ,	-0.124022
-2.730814	! -	-0.8933641
-2.283657	! .	-1.177135
-2.952663	! /	-0.5922369
-3.526695	! 0	-0.3091831
-2.666357	! 1	-1.128846
-4.128755	! 5
-3.526695	! :	-0.1528013
-3.827725	! ;	0.7823218
-4.128755	! <
-2.035333	! </s>
-0.1698086	! <w>	-0.2792089
-2.730814	! =	-1.335415
-3.827725	! >
-2.199336	! ?	-0.6453701
-4.128755	! A
-3.827725	! B	-0.4888821
-1.845453	! C	-2.008289
-3.429785	! D	-0.4473386
-4.128755	! E
-3.827725	! H	-0.4463888
-3.526695	! I	-0.07021415
-3.526695	! K	-0.3849946
-3.827725	! M
-4.128755	! N
-4.128755	! O
-3.827725	! P
-3.827725	! R
-3.651633	! S	-0.2804249
-3.651633	! T	0.05702525
-4.128755	! W
-3.651633	! [
-3.429785	! \	-0.4432508
-3.128755	! ]	-0.07250756
-3.827725	! a
-3.429785	! b	-0.291035
-3.651633	! d
-4.128755	! e
-3.225665	! f	-0.5516999
-2.610241	! i	-1.096834
-3.651633	! j	-0.2809335
-3.827725	! k
-3.827725	! l
-3.651633	! p	-0.232085
-3.827725	! r	-0.4404132
-3.087362	! s	-0.6826948
-4.128755	! w
-4.128755	! x
-3.827725	! y
-4.128755	! }
-3.827725	! ~	-0.3391405
-3.260632	" !	0.1663506
-2.983736	" "	-0.3751032
-3.787441	" #	-0.1554316
-3.874591	" $	-0.1929267
-3.925744	" %	-0.08532434
-4.828834	" &
-2.779616	" '	-0.08493745
-3.366436	" (	-0.1798183
-2.047078	" )	-0.2382011
-3.71489	" *	-0.1454216
-3.983736	" +	-1.008999
-1.550995	" ,	-0.5619278
-2.583321	" -	-0.4400806
-1.297738	" .	-1.628638
-2.718244	" /	-1.046142
-3.297355	" 0	-1.067509
-2.79945	" 1	-0.3232728
-3.138638	" 2	-0.4611748
-3.39747	" 3	-0.3544148
-3.55008	" 4	-0.4573159
-3.467106	" 5	-0.3891983
-3.573561	" 6	-0.281884
-4.828834	" 7
-4.226774	" 8	-0.1498599
-3.749653	" 9	-0.2631814
-2.588284	" :	-0.84815
-2.496395	" ;	-0.8395996
-3.351712	" <	-0.2937964
-2.018601	" </s>
-0.3925917	" <w>	-0.4708021
-4.005339	" =	-0.7173207
-2.391083	" >	-0.4358042
-2.779616	" ?	-0.6133577
-4.226774	" @
-1.639905	" A	-1.253734
-1.922499	" B	-1.029785
-1.825804	" C	-1.144098
-2.049959	" D	-1.257263
-2.203521	" E	-0.9797238
-2.114504	" F	-0.8011217
-2.203521	" G	-0.8337873
-1.88091	" H	-1.052094
-1.314021	" I	-1.10044
-2.603524	" J	-0.3682264
-2.904555	" K	-0.8647547
-2.139525	" L	-1.037356
-1.954352	" M	-0.9958163
-1.953773	" N	-1.592928
-1.901977	" O	-1.200759
-2.038549	" P	-1.102347
-3.205585	" Q	-0.9415662
-2.238884	" R	-1.107634
-1.775371	" S	-0.8563232
-1.316683	" T	-1.827176
-2.536578	" U	-0.4907737
-2.711563	" V	-1.026263
-1.508272	" W	-1.465359
-3.874591	" X	-0.223821
-1.918743	" Y	-1.779543
-3.413861	" Z	-0.1164081
-3.237769	" [	-0.319201
-3.226774	" \	-0.8189201
-3.166076	" ]	-0.03253537
-3.925744	" _	-0.6634555
-4.828834	" `
-1.875558	" a	-0.6645634
-2.113667	" b	-0.9515836
-1.990615	" c	-1.426341
-2.233338	" d	-1.747759
-2.31296	" e	-1.083845
-2.165133	" f	-1.88681
-2.412193	" g	-2.053446
-2.163253	" h	-0.6862137
-2.070679	" i	-1.235644
-3.065406	" j	0.1333755
-2.965511	" k	-0.9294693
-2.320978	" l	-1.463434
-2.148498	" m	-1.319513
-2.296079	" n	-1.510723
-2.250195	" o	-0.2436533
-2.054317	" p	-1.235094
-3.413861	" q	0.09161764
-2.136869	" r	-2.044231
-1.855244	" s	-1.422742
-1.750015	" t	-1.726456
-2.564016	" u	-0.7915624
-2.8118	" v	0.1709137
-2.101293	" w	-1.108964
-3.828834	" x	-0.3647102
-2.760648	" y	-1.659508
-3.787441	" z	-0.6047589
-4.005339	" {	-0.6520516
-3.874591	" }	0.06929904
-4.527804	" ~	-0.5473309
-1.933053	# !	-0.6352069
-0.7807649	# #	-2.586018
-2.632023	# '	-0.1332779
-3.176091	# )	-0.126366
-3.477121	# *
-2.154902	# ,	0.3354431
-2.653626	# .	-0.1575642
-2.778151	# /	-0.4499904
-1.281222	# 0	-1.63588
-1.651046	# 1	-0.2994272
-1.68473	# 2	-0.6385571
-1.691791	# 3	-0.4595712
-2.115393	# 4	-0.2556921
-1.98576	# 5	-0.166718
-1.933053	# 6	-0.5658641
-2.435729	# 7	-0.7323332
-1.657577	# 8	-0.9453915
-1.657577	# 9	-0.5023931
-1.886057	# </s>
-0.4168012	# <w>	-0.2714958
-3	# =	-0.6896451
-3.176091	# ?	0.01109165
-2.778151	# A	-1.645296
-2.363178	# C	-0.5784148
-3.477121	# D
-3.477121	# E
-2.079181	# F	-1.089711
-3.176091	# G	-0.5488732
-2.653626	# H	-0.2675955
-3.477121	# I
-3.176091	# M
-2.875061	# N	-0.7128968
-2.045758	# P	-0.5984671
-3	# R	-0.2304995
-2.574031	# T	-0.3180986
-3	# [	-0.563792
-2.574031	# a	-0.6684747
-3.477121	# b
-2.778151	# c	-0.3721627
-2.079181	# d	-0.6200553
-3.176091	# e
-1.814363	# f	-1.628543
-1.761118	# i	-1.002793
-1.257013	# j	-2.082344
-3.176091	# l	-0.4911218
-2.875061	# m	-0.4949732
-3.477121	# n
-2.221849	# p	-0.826171
-2.653626	# r	-0.286105
-3.176091	# s
-2.653626	# t	-0.09567782
-3.477121	# u
-1.167491	# x	-1.98265
-3.477121	# z
-3.009663	$ !
-3.310693	$ "
-2.487198	$ $	-0.4079537
-2.269301	$ &	-0.2878549
-2.164565	$ '	-0.8069667
-3.310693	$ (
-2.708633	$ )	0.02596065
-2.611723	$ *	-1.340635
-3.009663	$ +	-0.3678204
-3.310693	$ .
-2.356451	$ /	-0.5751545
-2.134602	$ 0	-1.012888
-0.6321749	$ 1	-0.5187199
-0.9452053	$ 2	-0.4053565
-1.183589	$ 3	-0.41813
-1.356451	$ 4	-0.6343017
-1.200104	$ 5	-0.5646423
-1.424203	$ 6	-0.2679615
-1.586417	$ 7	-0.3335597
-1.629452	$ 8	-0.2860732
-1.754391	$ 9	-0.5001843
-1.988474	$ </s>
-1.14634	$ <w>	-0.5319178
-3.310693	$ ?
-2.708633	$ @	-0.720512
-2.055421	$ A	-0.5390728
-1.948965	$ C	-1.355447
-1.819332	$ D	-1.485384
-1.930482	$ E	-1.573227
-2.231512	$ H	-0.6658407
-3.310693	$ I
-3.009663	$ L	-0.5404832
-2.611723	$ M	-0.3017141
-2.055421	$ O	-1.253117
-2.708633	$ P	-0.4628612
-1.948965	$ S	-1.351938
-3.310693	$ T
-2.269301	$ U	-1.044224
-2.487198	$ V	-0.684675
-2.708633	$ \	-0.6566969
-2.407603	$ ^	-0.7128481
-1.912753	$ _	-0.5082013
-2.487198	$ `	-0.7001604
-2.611723	$ a	-0.2308334
-2.487198	$ b	-0.5887016
-2.055421	$ c	-0.5179321
-2.269301	$ d	-0.3919235
-2.356451	$ e	-0.4751722
-2.356451	$ f	-0.5648493
-3.310693	$ g
-2.164565	$ h	-0.3324644
-2.310693	$ i	-0.3998594
-2.611723	$ k	-0.406668
-1.968271	$ l	-0.5197086
-2.269301	$ m	-0.7917209
-2.708633	$ n	-0.720501
-2.708633	$ o	-0.3803885
-2.19675	$ p	-0.4613959
-2.611723	$ q	-0.6171987
-1.435632	$ r	-1.657913
-2.009663	$ s	-0.5905938
-3.310693	$ t
-2.708633	$ u	-0.4136599
-3.310693	$ w
-2.407603	$ x	-0.3216533
-2.407603	$ y	-0.2592639
-1.742492	$ {	-0.9674066
-3.044305	% !	0.01532048
-3.141215	% "	-0.4954695
-3.743274	% $
-3.743274	% %
-3.743274	% '
-1.023943	% )	-0.653321
-1.578922	% ,	-0.4119982
-2.789032	% -	-0.3132493
-1.404818	% .	-0.9408585
-3.442245	% /	-0.5467331
-3.442245	% 0
-3.266153	% 1
-0.7646376	% 2	-2.049876
-1.752048	% 3	-1.413969
-2.464521	% 5	-0.8373371
-2.664093	% 7	-0.7308472
-3.442245	% 9
-3.442245	% :
-2.421055	% ;	0.008988857
-1.923731	% </s>
-0.215387	% <w>	-0.6609037
-3.266153	% =
-3.266153	% ?	0.2774054
-3.442245	% A	-0.5488703
-3.442245	% B	-0.5488651
-2.629331	% C	-1.054882
-3.743274	% I
-3.442245	% M	-0.5473207
-3.266153	% V	-0.6887419
-3.743274	% W
-3.141215	% X	-0.7115055
-3.141215	% Y	-0.3923485
-3.442245	% ]
-3.743274	% ^
-3.743274	% b
-3.743274	% c
-3.743274	% d
-3.743274	% i
-3.266153	% n	-0.6628735
-3.442245	% o
-3.141215	% p	-0.1679962
-3.743274	% r
-2.91978	% s	-0.1182708
-3.743274	% u
-3.266153	% v	-0.6553804
-3.743274	% w
-3.442245	% x	-0.4912659
-2.898176	% y	-0.1401963
-3.743274	% z
-1.452651	& #	-2.330398
-3.220221	& %	-0.6385935
-2.742686	& &	-0.7635146
-3.742686	& '
-4.043716	& (
-3.566595	& *
-3.566595	& ,	0.756026
-3.441656	& -	-0.3881627
-3.344746	& .	-1.072498
-4.043716	& 0
-3.140626	& 1	-0.2163952
-3.198618	& 2	-0.06998158
-3.742686	& 3
-3.742686	& 4
-4.043716	& 6
-3.742686	& 7
-3.742686	& 8
-4.043716	& 9
-1.998393	& </s>
-0.1404088	& <w>	-1.120327
-3.742686	& >
-2.251324	& A	-0.7387708
-2.099233	& B	-1.218849
-1.856195	& C	-0.9103642
-2.180393	& D	-0.7548499
-2.344746	& E	-1.030547
-2.452651	& F	-0.5501009
-2.499648	& G	-0.4808066
-3.441656	& H	-0.1791033
-2.499648	& I	-0.3480498
-3.344746	& J	-0.3591587
-3.344746	& K	-0.3410722
-2.839596	& L	-0.3172269
-2.596558	& M	-0.4920612
-2.701293	& N	-0.7207428
-3.441656	& O
-2.114297	& P	-0.8606381
-3.140626	& Q	0.160697
-2.186383	& R	-0.79443
-2.336146	& S	-0.7457408
-2.344746	& T	-0.2543411
-2.964535	& U	-0.7612418
-3.566595	& V	-0.2360784
-2.552354	& W	-0.6261127
-3.742686	& X
-2.788443	& Y	-0.8363612
-4.043716	& Z
-2.552354	& _	-0.8760663
-2.31944	& a	-0.6508813
-2.628742	& b	-0.4313991
-1.570959	& c	-0.8272456
-2.475514	& d	-0.7398809
-2.180393	& e	-0.8800752
-2.628742	& f	-0.5680408
-3.220221	& g	-0.07440461
-2.663505	& h	-0.2540352
-1.786037	& i	-1.091735
-2.929773	& k	-0.9885517
-2.280288	& l	-0.9451487
-2.452651	& m	-0.4915891
-2.452651	& n	-0.9984958
-2.721497	& o	-0.4816788
-1.73622	& p	-0.8783926
-2.929773	& q	-0.2973986
-2.380958	& r	-0.7307535
-1.97553	& s	-0.9853592
-1.885353	& t	-0.8133022
-2.867625	& u	-0.4197422
-2.681988	& v	0.2891252
-2.839596	& w	-1.293373
-3.089473	& x	-0.3362483
-3.043716	& y	-1.023286
-3.220221	& z	-0.6807651
-3.361463	' !	-0.508926
-3.136821	' "	-0.3564225
-4.676733	' #	-0.2786462
-4.852825	' $
-5.153854	' %
-4.199612	' &	-0.2630138
-2.141439	' '	-0.7802498
-3.551795	' (	-0.1413821
-2.396458	' )	-0.6242745
-4.112462	' *	-0.1266552
-4.676733	' +
-1.634027	' ,	-0.7157657
-3.284623	' -	-0.4207025
-1.60143	' .	-1.637978
-3.648705	' /	-0.3939523
-3.278793	' 0	-0.8696916
-3.273041	' 1	-0.1624687
-3.811432	' 2	-0.3872618
-3.622375	' 3	-0.3146167
-3.738881	' 4	-0.2303778
-3.949734	' 5	-0.1651499
-3.811432	' 6	-0.3834068
-3.446284	' 7	-0.4391999
-3.706697	' 8	-0.3701767
-3.375703	' 9	-0.262443
-3.004635	' :	-1.699687
-2.788367	' ;	-0.548017
-4.852825	' <
-2.00556	' </s>
-0.7293485	' <w>	-0.04452896
-3.648705	' >	-0.4902677
-2.94434	' ?	-0.5928044
-4.852825	' @
-2.161743	' A	-1.069965
-2.361463	' B	-1.26788
-2.257328	' C	-1.347436
-2.454885	' D	-1.041299
-2.536854	' E	-1.026849
-2.465435	' F	-0.8159924
-2.613525	' G	-1.061905
-2.474427	' H	-1.033804
-2.134323	' I	-0.9770688
-3.046644	' J	-0.2000239
-3.149533	' K	-0.767459
-2.491097	' L	-1.116534
-2.421461	' M	-0.7630098
-2.365686	' N	-1.61056
-2.50452	' O	-0.9784933
-2.477161	' P	-0.8794445
-3.722491	' Q	-0.9282262
-2.559462	' R	-1.053321
-2.066073	' S	-0.7616901
-1.818798	' T	-1.413681
-2.955197	' U	-0.8134114
-3.199612	' V	-0.7188928
-2.281116	' W	-0.8998073
-3.831635	' X	-0.7230173
-2.79592	' Y	-1.129049
-4.039911	' Z	-0.2307576
-4.039911	' [	-0.1976506
-4.250764	' \	-0.5992692
-3.132665	' ]	-0.7926669
-5.153854	' ^
-4.676733	' _
-2.223415	' a	-0.8482741
-2.454017	' b	-1.118264
-2.117226	' c	-1.969462
-1.738714	' d	-1.633387
-2.426313	' e	-0.664431
-2.501608	' f	-1.907212
-2.654167	' g	-1.774179
-2.563905	' h	-0.9500214
-2.364979	' i	-0.4298456
-3.32778	' j	-0.1022575
-3.250765	' k	-1.038216
-1.733569	' l	-2.061883
-1.623527	' m	-2.265893
-2.402575	' n	-1.65724
-2.590374	' o	-0.689752
-2.323266	' p	-1.031214
-3.706697	' q	-0.4176883
-1.643175	' r	-2.314375
-0.4234033	' s	-2.333598
-0.97704	' t	-1.966337
-2.733899	' u	-1.098874
-1.654993	' v	-1.925319
-2.516365	' w	-2.134526
-4.454885	' x
-3.354514	' y	-0.8542082
-4.153854	' z	-0.1348591
-5.153854	' |
-4.852825	' }
-3.215505	( !	-1.200231
-2.322715	( "	-0.09778655
-3.692627	( #	-0.56138
-2.896747	( $	-0.2718536
-3.617993	( %	-1.235577
-3.516535	( &	0.03869885
-2.536911	( '	0.05870163
-3.316963	( (	-0.2483387
-2.149335	( )	0.0503062
-2.676639	( *	-0.9533477
-2.843668	( +	-1.048159
-4.073252	( ,	1.169513
-2.651234	( -	-0.8776761
-2.932959	( .	-0.2870632
-3.641474	( /	-0.2237498
-1.838321	( 0	-1.10622
-1.019202	( 1	-1.01693
-1.342985	( 2	-0.7527518
-1.796721	( 3	-0.7977952
-1.917198	( 4	-0.57138
-2.046713	( 5	-0.6434836
-2.134819	( 6	-0.6834418
-2.225574	( 7	-0.4940192
-2.36272	( 8	-0.376369
-2.370407	( 9	-0.1218333
-3.316963	( :	-1.080783
-4.419625	( ;	-0.2825245
-3.855354	( <	-0.1286877
-1.995288	( </s>
-1.374302	( <w>	-0.591565
-3.692627	( =	-0.4426245
-3.817565	( >	0.3572062
-2.766413	( ?	-1.0256
-4.294687	( @
-1.626767	( A	-0.3026062
-1.816842	( B	-0.3784122
-1.578057	( C	-0.279979
-1.801926	( D	-0.6932399
-1.766091	( E	-0.4751199
-1.957227	( F	-0.4393537
-2.046713	( G	-0.2339529
-1.95623	( H	-0.04327393
-1.723269	( I	0.08247972
-2.048558	( J	-0.1591673
-2.536911	( K	-0.3382139
-1.82819	( L	-0.4193484
-1.687232	( M	-0.3130022
-1.718633	( N	-0.6767105
-2.037008	( O	-0.6010293
-1.633821	( P	-0.376774
-2.957227	( Q	-0.2003748
-1.94347	( R	-0.2459412
-1.552944	( S	-1.240402
-1.724436	( T	-0.1785457
-1.97454	( U	-0.5123103
-2.451142	( V	-0.05475223
-2.087861	( W	-0.3643899
-3.133319	( X	-0.6563235
-2.879713	( Y	-0.4671445
-3.405385	( Z	-0.2961102
-3.574527	( [	-0.2377446
-3.481773	( \	-1.008606
-4.595716	( ^
-4.294687	( _	-0.1927215
-3.692627	( `	-0.4420023
-1.286512	( a	-1.149004
-1.727072	( b	-1.15684
-1.844053	( c	-1.444527
-1.987726	( d	-1.723482
-1.587969	( e	-1.759199
-1.798796	( f	-1.349306
-2.514729	( g	-1.362267
-2.140872	( h	-0.4578104
-1.430324	( i	-1.458703
-2.863323	( j	-0.8360411
-2.855354	( k	-0.5701151
-2.147784	( l	-1.26978
-2.03581	( m	-1.36113
-1.915835	( n	-1.754427
-1.64244	( o	-1.614875
-1.627	( p	-0.6873167
-3.111417	( q	-0.1920799
-2.036409	( r	-1.086162
-1.41674	( s	-0.8908125
-1.561891	( t	-1.203488
-2.180743	( u	-1.518695
-2.365268	( v	0.4932193
-1.660713	( w	-1.64921
-3.045488	( x	-0.7003822
-2.750619	( y	-0.7346594
-3.535019	( z	-0.3353396
-4.051649	( ~	-0.09806778
-3.52621	) !	-0.5892153
-2.952179	) "	-0.7304853
-4.003331	) $	-0.9220742
-4.082926	) %	-0.2470881
-4.605391	) &
-2.868995	) '	-0.89355
-2.34294	) (	-0.9643221
-2.385283	) )	-0.03673673
-3.11403	) *	-0.259672
-4.082926	) +	-0.550669
-0.9468552	) ,	-1.236864
-3.107081	) -	-0.5253055
-0.7330893	) .	-2.019482
-3.019931	) /	-0.3629974
-4.082926	) 0
-2.769701	) 1	-0.9993325
-2.590451	) 2	-1.235605
-3.906421	) 3	-0.1071526
-4.304361	) 4	-0.1807202
-4.605391	) 5
-4.906421	) 6
-3.952179	) 7	-0.4860052
-4.4293	) 8	-0.2564923
-4.4293	) 9
-1.878664	) :	-1.395817
-1.549249	) ;	-0.8818573
-4.304361	) <	-0.1893999
-1.9974	) </s>
-0.2062023	) <w>	-0.05853319
-3.73033	) =	-0.3529617
-4.605391	) >	0.05140424
-2.845723	) ?	-0.5318616
-3.952179	) A	-0.1796202
-2.460817	) C	-2.19835
-4.605391	) D
-4.605391	) F
-4.906421	) H
-3.952179	) I	-0.4298427
-4.4293	) L
-4.906421	) N
-4.906421	) O
-4.4293	) P
-4.207451	) R	-1.52816
-4.304361	) S	-0.3538534
-4.003331	) T	0.02149186
-4.906421	) U
-4.906421	) V
-4.4293	) W	-0.2230996
-4.906421	) Y
-4.003331	) [	-0.0510018
-3.82724	) \	-0.276821
-2.933293	) ]	-0.1124943
-4.605391	) ^
-3.906421	) _	-0.4781875
-4.605391	) `	-0.5484535
-3.627668	) a	-0.2914178
-3.82724	) b	-0.5409449
-4.061323	) c	-1.300768
-3.906421	) d	-0.2586294
-4.061323	) e	-0.0216783
-4.207451	) f	-0.1930704
-4.605391	) g
-4.082926	) h	-0.303721
-3.605391	) i	-0.823786
-4.4293	) k	-0.6321652
-4.906421	) l
-4.207451	) m	-0.2415339
-4.4293	) n	-0.2501473
-3.82724	) o	-0.3355491
-4.003331	) p	-0.4399179
-4.082926	) r	-0.3189831
-3.952179	) s	0.02448091
-4.207451	) t	-0.1575898
-4.207451	) u	-0.3955729
-4.082926	) w	-0.1479471
-4.906421	) x
-4.003331	) y	-0.6590568
-4.906421	) z
-4.4293	) {	0.2038979
-4.061323	) |	0.5782487
-4.4293	) }
-3.155822	* !	0.144056
-2.951702	* "	-0.5668739
-3.854792	* #
-3.854792	* $
-2.474581	* '	-0.8008742
-2.323313	* (	-0.2316566
-1.597113	* )	0.1182741
-0.5614291	* *	-0.8087745
-3.854792	* +
-1.538821	* ,	0.1927588
-3.031297	* -	-0.1332298
-1.900549	* .	-0.2689818
-1.821368	* /	-1.461405
-2.951702	* 0	-0.08737133
-2.813399	* 1	-0.4245454
-2.512369	* 2	-0.3813724
-3.252732	* 3	-0.2837501
-3.155822	* 4	-0.4188014
-3.553762	* 5
-3.553762	* 7	-0.5237203
-3.854792	* 8
-3.553762	* 9	-0.445085
-3.252732	* :	0.3751679
-2.951702	* ;	0.3769656
-1.98556	* </s>
-0.2960831	* <w>	0.1448438
-3.854792	* =
-2.708664	* ?	0.06613845
-3.553762	* @
-2.407634	* A	-0.3825798
-2.493064	* B	-0.4286406
-2.392394	* C	-0.722313
-3.377671	* D
-2.854792	* E	-0.2650704
-2.740848	* F	-0.1660111
-2.951702	* G	-0.00594347
-2.854792	* H	-0.1104011
-2.298489	* I	-0.4520106
-3.252732	* J	-0.07325264
-3.854792	* K
-2.900549	* L	-0.3565634
-3.031297	* M	0.03290391
-2.854792	* N	-0.300869
-2.6787	* O	-0.1618187
-2.512369	* P	-0.497592
-3.854792	* Q
-2.532573	* R	-0.6909941
-2.650672	* S	-0.09464168
-2.310724	* T	-0.3646188
-3.377671	* U
-3.252732	* W	-0.128648
-3.854792	* X
-3.854792	* Y
-3.553762	* Z	-0.5485029
-3.553762	* [
-3.009694	* \	-0.4612311
-2.708664	* ]	-0.2186356
-2.456852	* a	-0.09520823
-2.813399	* b	-0.3832885
-2.553762	* c	-0.6014051
-2.813399	* d	0.1131289
-2.493064	* e	-0.3115101
-2.6787	* f	-0.4195828
-2.951702	* g	-0.3508759
-2.813399	* h	-0.07951835
-2.407634	* i	-0.6099981
-3.854792	* j
-2.813399	* k	-0.1829451
-2.310724	* l	-0.9493351
-2.512369	* m	-0.4291246
-2.474581	* n	-0.538525
-2.854792	* o	-0.2252205
-2.624343	* p	-0.3839797
-3.854792	* q
-2.813399	* r	-0.2375399
-2.08394	* s	-0.2531391
-2.310724	* t	-0.1140526
-3.252732	* u
-3.377671	* v
-2.951702	* w	-0.3259863
-3.252732	* x	-0.3389392
-3.009694	* y	-0.4724201
-3.031297	* z	-0.3297315
-3.601517	+ !
-2.698427	+ "	-0.8214824
-3.601517	+ $
-2.902547	+ %	-0.3713815
-3.601517	+ &
-3.300487	+ '
-2.647274	+ (	-0.1912079
-1.487573	+ )	-0.7787629
-0.9813807	+ +	-1.206815
-1.999457	+ ,	-0.1507353
-1.529635	+ -	-1.304309
-2.322763	+ .	-0.4035529
-2.139119	+ /	-0.5827771
-1.592917	+ 0	-0.9181747
-1.437164	+ 1	-0.977815
-1.809125	+ 2	-0.2506578
-1.958064	+ 3	-0.2137408
-0.8788829	+ 4	-1.907775
-2.647274	+ 5	0.05469815
-2.756419	+ 6	-0.1800221
-2.560124	+ 7	-0.123085
-2.902547	+ 8	-0.2400549
-2.371068	+ 9	-0.4512262
-2.902547	+ :	-1.078549
-2.778022	+ ;	0.6106794
-1.988733	+ </s>
-0.4673397	+ <w>	0.1975023
-2.522336	+ =	-0.7156258
-3.124396	+ ?	-0.1353207
-3.601517	+ @
-2.221306	+ A	-0.6174808
-2.139119	+ B	-0.5828993
-2.021733	+ C	-0.5354378
-2.601517	+ D	-0.01251215
-2.778022	+ E
-2.560124	+ F	-0.460196
-2.698427	+ G	-0.2846635
-2.778022	+ H	-0.1601555
-2.698427	+ I	-0.05395404
-3.601517	+ J
-3.601517	+ K
-2.647274	+ L	-0.1530017
-2.371068	+ M	-0.1685923
-2.601517	+ N	-0.936099
-2.756419	+ O	-0.09181766
-2.033315	+ P	-0.3937642
-3.601517	+ Q
-2.999457	+ R	-0.6024122
-2.021733	+ S	-0.516018
-2.560124	+ T	0.05444989
-2.778022	+ U	-0.1079332
-2.487573	+ V	-0.7997724
-2.425426	+ W	-0.1428616
-3.300487	+ X
-1.487573	+ [	-1.896534
-2.455389	+ ]	-0.04254431
-1.978268	+ a	-0.7608219
-2.259094	+ b	0.02799797
-2.259094	+ c	-0.3076882
-2.110155	+ d	-1.078239
-2.902547	+ e	-0.1414069
-2.487573	+ f	-0.3963369
-2.698427	+ g
-2.560124	+ h	0.006014258
-2.487573	+ i	-0.07539338
-3.124396	+ k
-2.756419	+ l	-0.3530486
-2.560124	+ m	-0.2423338
-2.698427	+ n	-0.1220819
-2.425426	+ o	-0.3333863
-2.371068	+ p	-0.1433715
-3.124396	+ q	0.7468972
-2.371068	+ r	-0.4739717
-2.033315	+ s	-0.4963537
-2.203577	+ t	-0.3117057
-2.778022	+ u	-0.1007483
-2.010452	+ v	0.1496688
-2.560124	+ w	-0.0956279
-2.778022	+ x	-0.7313437
-2.397397	+ y	-0.2151831
-3.124396	+ z
-3.124396	+ {	-0.2710702
-2.160398	, "	-1.964638
-5.208062	, #	-0.6926851
-5.083124	, $	-0.1882542
-5.083124	, %	-0.3146244
-4.730941	, &	-0.3955379
-2.900566	, '	-1.200463
-4.384153	, (	-0.2175909
-4.208062	, )	-0.7530603
-4.116982	, *	-0.7489551
-3.462467	, ,	0.8754426
-3.899854	, -	-0.8601009
-3.70746	, .	-0.6107895
-4.643791	, /	-0.5038798
-2.160528	, 0	-2.107998
-2.970016	, 1	-0.616466
-3.019603	, 2	-0.9450097
-3.153705	, 3	-0.9064133
-3.221291	, 4	-0.935176
-2.983616	, 5	-1.450729
-3.292487	, 6	-1.142292
-3.294248	, 7	-1.291854
-3.304972	, 8	-0.9266013
-3.494852	, 9	-0.8077334
-5.384153	, :	-0.5488272
-5.384153	, ;
-4.986214	, <	-1.634108
-2.000967	, </s>
-0.01564071	, <w>	-1.850355
-4.166669	, A	-0.2488749
-4.27021	, B	0.00771898
-3.810122	, C	-0.3638453
-4.323456	, D	-0.4500252
-4.362964	, E	-0.3977304
-4.323456	, F	-0.1508468
-4.362964	, G	-0.260443
-4.606002	, H	-0.3643489
-4.116982	, I	-0.1912347
-4.606002	, J	-0.422368
-5.384153	, K
-4.509092	, L	-0.1021059
-4.208062	, M	-0.3226732
-4.304972	, N	-0.3520952
-4.730941	, O	-0.02493487
-4.342761	, P	0.006535858
-5.384153	, Q
-4.222785	, R	-0.1984096
-4.022426	, S	-0.2688646
-3.859109	, T	-0.03513044
-4.606002	, U	-0.4856306
-4.539055	, V	-0.2070518
-4.481063	, W	-0.1984421
-5.384153	, X	-0.539471
-5.685184	, Y
-5.685184	, Z
-5.384153	, [
-5.384153	, ]
-5.685184	, _
-5.384153	, `	-0.5478035
-3.672346	, a	-0.3884493
-3.899854	, b	-0.3756509
-3.907032	, c	-0.8384256
-4.323456	, d	-0.4687721
-4.238026	, e	-0.453142
-4.384153	, f	-0.4251804
-4.730941	, g	-0.2203375
-4.238026	, h	-0.5802578
-3.755764	, i	-0.646052
-4.128881	, j	-0.8321694
-4.539055	, k	-0.7269808
-4.454735	, l	-0.2307303
-3.977613	, m	-0.4424698
-4.116982	, n	-0.5586467
-4.141116	, o	-0.21793
-3.885843	, p	-0.6060941
-5.685184	, q
-4.57124	, r	-0.4202329
-3.798693	, s	-0.6819465
-3.721396	, t	-0.7601488
-4.782094	, u	-0.2198092
-4.287243	, v	0.09167552
-4.1054	, w	-0.8426718
-5.384153	, x
-4.384153	, y	0.09052777
-4.730941	, z	-0.8217183
-5.083124	, }	0.3490495
-4.727305	- !	-0.2817646
-3.280147	- "	-0.2989674
-4.505456	- #	-0.2755529
-3.842699	- $	-0.7565796
-5.204427	- %
-4.727305	- &	-0.6951416
-3.602367	- '	-0.2977589
-3.505457	- (	-0.4841667
-2.794493	- )	-0.7245761
-4.058299	- *	-0.2317039
-3.147522	- +	-1.647479
-3.699277	- ,	0.5482347
-1.047544	- -	-0.8020744
-3.806487	- .	0.097987
-3.824215	- /	-0.419827
-1.904266	- 0	-1.657995
-1.498734	- 1	-1.083904
-1.617952	- 2	-1.30452
-2.151733	- 3	-0.7255903
-2.152888	- 4	-0.466692
-2.294336	- 5	-0.6721864
-2.240167	- 6	-1.196367
-2.36937	- 7	-0.4546154
-2.392852	- 8	-0.5132217
-2.392852	- 9	-0.1225945
-4.727305	- :	-0.6927266
-4.903397	- <	-0.4777269
-2.002756	- </s>
-0.5458524	- <w>	-1.148525
-4.505456	- =	-0.6300939
-3.03124	- >	-0.5886858
-5.204427	- ?
-2.294336	- A	-0.4901724
-2.383569	- B	-0.4287531
-2.191168	- C	-0.5249712
-2.351947	- D	-0.5543832
-2.416966	- E	-0.678956
-2.478515	- F	-0.5289181
-2.475262	- G	-0.4668889
-2.562953	- H	-0.442628
-2.366207	- I	-0.5348691
-2.693882	- J	-0.5732114
-3.136241	- K	-0.5958874
-2.365577	- L	-0.7242385
-2.293802	- M	-0.7582415
-2.6374	- N	-0.6924459
-2.773063	- O	-0.5226426
-2.233151	- P	-0.4594239
-3.419097	- Q	-1.082178
-2.428452	- R	-1.16557
-2.068658	- S	-0.3808182
-2.338139	- T	-0.2615142
-2.697922	- U	-0.3149148
-2.937255	- V	-0.5713745
-2.385541	- W	-0.4784375
-3.365577	- X	-0.4548479
-3.341104	- Y	-0.2599227
-2.992239	- Z	-0.9310071
-3.882207	- [	-0.2178049
-4.163034	- ]	0.04953182
-4.125246	- _	-0.1482764
-5.204427	- `
-1.717854	- a	-1.069099
-1.547275	- b	-1.513729
-1.497282	- c	-1.899909
-1.660855	- d	-1.417011
-1.744431	- e	-0.8209676
-1.697111	- f	-1.578452
-2.05706	- g	-1.638932
-1.878296	- h	-0.6711272
-1.859053	- i	-1.584152
-2.82785	- j	-0.8108205
-2.452378	- k	-1.390101
-1.66011	- l	-1.828221
-1.622818	- m	-1.861847
-2.193279	- n	-2.469304
-1.557044	- o	-1.264802
-1.621341	- p	-1.653632
-2.779545	- q	-0.4137253
-1.68355	- r	-2.05946
-1.409103	- s	-1.870437
-1.423749	- t	-1.458102
-1.966632	- u	-1.872187
-2.43064	- v	0.06432033
-1.823492	- w	-1.711309
-3.448552	- x	-0.5629289
-2.256993	- y	-1.502043
-3.419097	- z	-0.5023498
-4.301337	- |	1.18254
-5.204427	- ~
-4.260753	. !	-0.0495348
-1.892494	. "	-2.274503
-5.478237	. #	-0.54496
-4.737874	. $	-0.2068224
-5.177207	. %	0.1105274
-4.934169	. &	0.2740096
-2.261939	. '	-2.021512
-3.722362	. (	-0.4605704
-2.449869	. )	-0.7456995
-3.849848	. *	-0.2093496
-5.302145	. +	-0.2682052
-2.311511	. ,	-0.5219349
-3.491465	. -	-0.6751186
-1.285836	. .	-1.348606
-4.071696	. /	-0.3624174
-2.057127	. 0	-1.224312
-2.198	. 1	-0.4956876
-2.329634	. 2	-0.4906802
-2.267784	. 3	-1.094432
-2.55138	. 4	-0.7254568
-2.363626	. 5	-0.6517031
-2.746245	. 6	-0.64073
-2.787155	. 7	-0.445972
-2.889405	. 8	-0.4576802
-2.55061	. 9	-0.7582746
-3.870782	. :	-0.9153461
-3.934169	. ;	-0.2128599
-4.436844	. <	-0.6392301
-1.993368	. </s>
-0.1346479	. <w>	2.240167
-4.417539	. =	-0.521051
-3.685845	. ?	-0.7471215
-4.876177	. @	-0.2635054
-2.914163	. A	-1.139016
-3.251637	. B	-0.6848777
-2.089248	. C	-1.962555
-3.159131	. D	-0.7739071
-3.33056	. E	-1.103572
-3.487011	. F	-0.5834325
-3.292128	. G	-0.8253145
-3.381327	. H	-0.804455
-3.126054	. I	-0.7004062
-3.260753	. J	-1.166384
-3.339934	. K	-0.96409
-3.432914	. L	-0.8218023
-3.164369	. M	-0.9901308
-3.149857	. N	-1.385844
-3.371027	. O	-0.9905648
-3.29926	. P	-0.9036955
-4.737874	. Q	-0.1818794
-3.175041	. R	-1.109854
-2.578416	. S	-1.385554
-3.113686	. T	-0.683064
-4.008415	. U	-0.580828
-3.921934	. V	-0.7336415
-3.267383	. W	-1.105876
-4.523994	. X	-0.2366298
-3.934169	. Y	-0.2816086
-4.934169	. Z	-0.2635718
-3.263393	. [	-0.9071173
-4.876177	. \	-0.3583173
-3.00184	. ]	-1.145663
-4.145798	. ^	-1.166332
-5.302145	. _	-0.3926554
-5.779267	. `
-1.960909	. a	-1.442143
-2.610475	. b	-0.3057885
-1.704926	. c	-2.25892
-2.766429	. d	-0.6972487
-2.440611	. e	-0.9512343
-2.886616	. f	-0.2221366
-2.268052	. g	-1.140342
-1.927642	. h	-1.279433
-2.679931	. i	-0.4969279
-3.075116	. j	-0.4532864
-3.235199	. k	-1.368303
-2.912389	. l	-0.6430668
-2.570825	. m	-1.28218
-2.63719	. n	-1.806981
-2.155294	. o	-1.162258
-2.341833	. p	-1.123745
-3.959723	. q	-0.2680509
-2.868642	. r	-1.508227
-2.476287	. s	-1.119417
-2.749883	. t	-0.7938821
-1.579183	. u	-2.368514
-3.473915	. v	0.4105937
-3.01509	. w	-1.014092
-3.603175	. x	-0.78944
-3.478237	. y	-1.48847
-3.711081	. z	-0.9850193
-5.478237	. {
-5.302145	. |	-0.2818538
-4.779267	. }	0.04539621
-4.428529	/ !	-0.2798194
-3.826469	/ "	-0.4635357
-4.082155	/ #	-0.312431
-2.759522	/ $	-0.8055279
-4.60462	/ %
-4.428529	/ &
-3.563227	/ '	-0.1760606
-3.458492	/ (	-0.4567343
-3.458492	/ )	-0.5274413
-2.815745	/ *	-0.88899
-4.060552	/ +	-0.0007936507
-3.951408	/ ,	0.9296228
-2.738333	/ -	-0.9728916
-3.325867	/ .	0.01668495
-0.7975251	/ /	-2.130933
-1.357998	/ 0	-1.758175
-1.608109	/ 1	-0.6823342
-1.412192	/ 2	-0.9849386
-2.233552	/ 3	-0.2306021
-2.150538	/ 4	-0.5486161
-2.310154	/ 5	-0.4172498
-2.185491	/ 6	-0.3616211
-2.305767	/ 7	-0.6069874
-2.4679	/ 8	-0.2683576
-2.134798	/ 9	-0.5178905
-4.90565	/ :
-3.90565	/ ;	0.7720075
-4.428529	/ <	-0.2114131
-2.001476	/ </s>
-1.36507	/ <w>	0.1341236
-4.00256	/ =	-0.3433741
-2.665101	/ >	-1.223774
-2.89705	/ ?	-0.7898194
-4.428529	/ @	-0.5903218
-2.117482	/ A	-0.2003592
-2.452332	/ B	-0.008048177
-2.118899	/ C	-0.07039309
-2.216341	/ D	-0.4991595
-2.317939	/ E	-0.2563007
-2.443252	/ F	-0.1616157
-2.534582	/ G	-0.4045219
-2.573212	/ H	-0.239319
-2.228957	/ I	-0.3385843
-2.606797	/ J	0.06546044
-3.01916	/ K	-0.4967653
-2.509451	/ L	-0.2541385
-2.239132	/ M	-0.2475684
-2.50253	/ N	-0.4996665
-2.500817	/ O	-0.7585814
-2.060552	/ P	-0.7460356
-3.325867	/ Q	-0.6426815
-2.441757	/ R	-0.3447781
-2.076346	/ S	-0.1784401
-2.183016	/ T	-0.05851567
-2.579314	/ U	-0.3869411
-2.606797	/ V	-0.5060459
-2.404591	/ W	0.009178638
-3.349348	/ X	-0.5239573
-3.337448	/ Y	-0.4835075
-3.650378	/ Z	-0.07608934
-4.60462	/ [
-3.292866	/ \	-0.6742601
-4.90565	/ ]
-3.90565	/ ^	-0.4680949
-3.30359	/ _	-0.5478256
-4.90565	/ `
-1.637306	/ a	-0.8271416
-1.885704	/ b	0.1590861
-1.486355	/ c	-0.9496704
-1.608109	/ d	-1.116028
-1.749404	/ e	-1.894278
-1.849126	/ f	-0.7807121
-1.990778	/ g	-0.6798199
-1.87022	/ h	-0.2887369
-1.564018	/ i	-0.9003656
-2.419929	/ j	0.1143323
-2.168458	/ k	-1.511949
-1.817514	/ l	-1.282406
-1.707268	/ m	-0.03224051
-1.80356	/ n	-1.542303
-1.750922	/ o	-1.145588
-1.542791	/ p	-1.315809
-2.901329	/ q	-0.03811216
-1.65304	/ r	-1.272254
-1.473644	/ s	-0.6235368
-1.740109	/ t	-0.549347
-2.180556	/ u	-1.002152
-2.197229	/ v	0.06022441
-0.8259987	/ w	-1.841658
-2.927927	/ x	-0.6116081
-2.762635	/ y	-0.3826666
-3.024837	/ z	-0.270142
-4.60462	/ {	-0.5408239
-4.30359	/ |	-0.395697
-2.759522	/ ~	-1.104324
-3.915266	0 !	-0.9442552
-2.839387	0 "	-1.419949
-4.780567	0 #	-0.07285766
-4.780567	0 $
-2.085377	0 %	-0.5903764
-3.200783	0 &	0.1143541
-2.379166	0 '	-1.474262
-3.303446	0 (	-0.7057453
-1.762144	0 )	-0.4490197
-3.842715	0 *	-0.3752462
-3.289205	0 +	-0.7402742
-1.597962	0 ,	-0.1756992
-1.850467	0 -	-1.127051
-1.47407	0 .	-1.297172
-2.201164	0 /	-1.052911
-0.5035999	0 0	-0.6013951
-1.297932	0 1	-0.5138199
-1.396811	0 2	-0.3245299
-1.459383	0 3	-0.5871817
-1.416078	0 4	-0.4613127
-1.275779	0 5	-0.4938142
-1.211544	0 6	-1.065514
-1.824879	0 7	-0.4367622
-1.830852	0 8	-0.3109437
-1.886805	0 9	0.1564461
-2.183604	0 :	-1.409541
-2.49501	0 ;	-0.08317828
-4.956658	0 <	-0.4777269
-1.988409	0 </s>
-0.7393454	0 <w>	-0.3728611
-4.027239	0 =	-0.3515931
-4.558718	0 >	-1.046378
-3.5095	0 ?	0.1175866
-3.689487	0 @	-0.3977603
-3.349203	0 A	-0.3326516
-3.533412	0 B	-0.2129848
-2.8922	0 C	-0.7025478
-3.58559	0 D	-0.2286953
-3.550118	0 E	-0.2969965
-3.275417	0 F	-0.7070208
-3.232382	0 G	-0.6432672
-3.541685	0 H	-0.08444333
-3.956658	0 I	-0.1572985
-3.71362	0 J	-0.514708
-3.240655	0 K	-0.6956633
-3.978935	0 L	0.06756908
-3.19699	0 M	-0.8044065
-3.766326	0 N	-0.4160053
-4.053568	0 O	-0.3178602
-3.108469	0 P	-0.6849034
-3.842715	0 Q	-0.524277
-3.400356	0 R	-0.4546791
-3.79529	0 S	0.003073186
-3.550118	0 T	-0.1962823
-4.216296	0 U	-0.11516
-4.257688	0 V	-0.05501856
-3.472358	0 W	-0.2036157
-4.053568	0 X	-0.1384715
-4.216296	0 Y	-0.1274992
-4.655628	0 Z
-4.216296	0 [	-0.3060981
-4.956658	0 \	-0.539419
-2.988175	0 ]	0.0001193285
-3.877477	0 ^	-0.6521108
-3.576447	0 _	0.03175652
-4.081597	0 `	-1.142607
-2.709913	0 a	-1.191482
-3.40643	0 b	-0.508349
-2.961023	0 c	-0.538004
-3.078711	0 d	-0.5473313
-3.81053	0 e	0.009913206
-3.313205	0 f	-0.1892546
-2.70746	0 g	-1.308073
-3.479537	0 h	-0.2110845
-3.249088	0 i	-0.8692319
-4.558718	0 j	-0.1452564
-2.739174	0 k	-1.063486
-3.752538	0 l	-0.2970194
-2.27814	0 m	-1.150332
-3.249088	0 n	-0.7762922
-4.143745	0 o	-0.25896
-2.22871	0 p	-1.247059
-4.41259	0 q	-0.2697699
-3.604476	0 r	-0.1531348
-1.970559	0 s	-1.661229
-2.234436	0 t	-1.70876
-4.303446	0 u	-0.2720874
-4.257688	0 v	-0.4900603
-3.614235	0 w	-0.6253136
-2.758001	0 x	-1.409177
-4.354598	0 y	0.1352706
-5.257688	0 z
-4.956658	0 |	-0.5487905
-4.002416	0 }	-0.2327178
-5.257688	0 ~
-3.876304	1 !	-0.2061011
-2.995491	1 "	-0.9049001
-5.177334	1 $
-2.821309	1 %	-0.3638737
-2.8873	1 &	-0.8283471
-3.186108	1 '	-0.5971866
-2.973214	1 (	-0.795566
-1.688079	1 )	-0.07600689
-4.031207	1 *	-0.0736104
-3.338485	1 +	-0.880805
-1.584714	1 ,	-0.08522344
-1.900413	1 -	-1.241614
-1.383544	1 .	-0.9942405
-1.964348	1 /	-1.070202
-1.041979	1 0	-0.3104811
-1.299503	1 1	-0.3903944
-1.200068	1 2	-0.4915059
-1.414431	1 3	-0.6913731
-1.400997	1 4	-0.4046035
-1.307692	1 5	-0.5099683
-1.381593	1 6	-0.3492627
-1.31028	1 7	-0.696305
-1.102591	1 8	-0.7567078
-0.6880089	1 9	-0.981302
-1.981988	1 :	-1.351707
-2.653588	1 ;	0.3360178
-4.098153	1 <	-1.042784
-1.991509	1 </s>
-0.9207851	1 <w>	-0.1675401
-3.453058	1 =	-0.437238
-4.063391	1 >	0.04370081
-3.855115	1 ?	-0.1393062
-3.797123	1 @	-0.2664783
-2.978677	1 A	-0.525911
-3.190563	1 B	-0.4272247
-3.070124	1 C	-0.6212468
-3.453058	1 D	-0.2002611
-3.371155	1 E	-0.4831897
-3.855115	1 F	-0.0886436
-3.815607	1 G	-0.169607
-3.001243	1 H	-0.8242581
-4.031207	1 I	0.02334046
-3.876304	1 J	0.2558426
-3.429147	1 K	-0.6554853
-3.898581	1 L	-0.254786
-3.399183	1 M	-0.4012575
-3.469764	1 N	-0.520171
-4.332236	1 O	-0.04913162
-3.190563	1 P	-0.7080308
-3.290844	1 Q	-0.8722529
-3.413907	1 R	-0.4396787
-3.543866	1 S	-0.2419579
-3.332237	1 T	-0.1392181
-3.658821	1 U	-0.3618643
-3.633266	1 V	-1.120658
-3.575274	1 W	-0.3566329
-3.973214	1 X	-0.0782281
-3.922062	1 Y	0.0003998876
-4.332236	1 Z	-0.09933569
-4.478364	1 [
-4.001243	1 \	-0.5459869
-2.594136	1 ]	-0.3295525
-4.575274	1 ^	-0.3020913
-3.03432	1 _	-0.6879646
-3.015966	1 a	-0.971954
-3.213547	1 b	-0.7682953
-3.090975	1 c	-0.9691792
-2.962491	1 d	-0.1757677
-3.779394	1 e	0.0352698
-3.745971	1 f	-0.2811575
-3.685973	1 g	-0.4747986
-3.700213	1 h	-0.6779995
-4.098153	1 i	-0.4659462
-4.098153	1 j	-0.1660369
-3.279707	1 k	-0.9915704
-4.001243	1 l	-0.3300681
-3.043796	1 m	-0.7206541
-3.876304	1 n	-0.2335609
-3.922062	1 o	-0.4056987
-2.821309	1 p	-1.107624
-4.575274	1 q	-0.1929103
-4.031207	1 r	-0.2062428
-2.021088	1 s	-1.695128
-2.708987	1 t	-1.591116
-4.700213	1 u
-4.700213	1 v
-4.478364	1 w
-3.855115	1 x	-0.3019402
-4.575274	1 y	0.2201789
-4.575274	1 {	-0.706386
-4.876305	1 |	1.039553
-3.898581	1 }	0.1035833
-5.177334	1 ~
-4.22703	2 !	-0.02433586
-2.737675	2 "	-1.258738
-5.072128	2 #
-5.072128	2 $
-2.611231	2 %	-0.2651311
-3.147849	2 &	-0.5321121
-3.174501	2 '	-0.7101933
-2.916792	2 (	-0.829536
-1.581187	2 )	-0.1866429
-3.868009	2 *	-0.1474114
-3.233279	2 +	-0.6381356
-1.6374	2 ,	-0.5849639
-1.758683	2 -	-1.282398
-1.264593	2 .	-1.101346
-1.982223	2 /	-1.020701
-0.4433208	2 0	-0.4050012
-1.432045	2 1	-0.3205259
-1.45797	2 2	-0.2582716
-1.504749	2 3	-0.5962602
-1.484305	2 4	-0.3518307
-1.378402	2 5	-0.3125126
-1.564677	2 6	-0.2420245
-1.559444	2 7	-0.2615503
-1.480953	2 8	-0.2549915
-1.596167	2 9	0.008232355
-1.85333	2 :	-1.432599
-2.642376	2 ;	0.01279557
-4.470068	2 <	-0.3254002
-2.010299	2 </s>
-0.8372318	2 <w>	-0.09509945
-3.749909	2 =	-0.2205112
-4.030736	2 >	0.3451379
-3.749909	2 ?	-0.1450585
-3.640765	2 @	-0.5899024
-2.873471	2 A	-0.6837372
-3.185638	2 B	-0.4941317
-3.030736	2 C	-0.5755736
-3.015224	2 D	-0.3711941
-3.22087	2 E	-0.423446
-3.122739	2 F	-0.4914723
-3.503927	2 G	-0.3044549
-3.492345	2 H	-0.4350446
-3.62497	2 I	-0.285129
-3.84168	2 J	-0.1785199
-3.390887	2 K	-0.5168414
-3.272788	2 L	-0.5671325
-3.046823	2 M	-0.5928017
-3.62497	2 N	-0.1519573
-4.030736	2 O
-3.553615	2 P	-0.2849663
-3.992947	2 Q	-0.4462061
-3.492345	2 R	-0.2829533
-3.316254	2 S	-0.5067922
-3.347853	2 T	-0.2481133
-3.992947	2 U	-0.3400316
-4.117886	2 V	-0.09494352
-3.553615	2 W	-0.3504834
-3.84168	2 X	-0.2688316
-3.958185	2 Y	0.2181022
-4.248633	2 Z	-0.1174514
-4.248633	2 [	-0.2713745
-4.771099	2 \	-0.5382209
-2.583578	2 ]	-0.4070656
-4.373158	2 ^	-0.3542417
-3.089857	2 _	-0.5702541
-3.003943	2 a	-0.782602
-3.202897	2 b	-0.5614359
-3.15305	2 c	-0.5241681
-2.791095	2 d	0.1090402
-3.566978	2 e	-0.2705809
-3.147849	2 f	-0.663743
-3.265949	2 g	-0.6166577
-3.816856	2 h	-0.3154739
-3.691917	2 i	-0.9964372
-4.22703	2 j	-0.1869938
-3.147849	2 k	-0.7568461
-3.749909	2 l	-0.5390844
-2.449914	2 m	-1.089851
-2.192459	2 n	-2.194543
-4.030736	2 o	-0.4632799
-2.587829	2 p	-1.273406
-4.22703	2 q
-3.84168	2 r	-0.3849477
-3.122739	2 s	-0.4413049
-2.675929	2 t	-1.907257
-5.072128	2 u
-5.072128	2 v
-3.958185	2 w	-0.5882847
-3.710401	2 x	-0.2439407
-4.22703	2 y	-0.3943202
-4.373158	2 z	-0.1468542
-4.470068	2 {	-0.706386
-4.373158	2 }	0.4063616
-3.751335	3 !	-0.1995543
-3.000336	3 "	-0.751094
-4.792728	3 $
-2.376087	3 %	-0.6116977
-2.973184	3 &	-0.6203725
-2.917666	3 '	-0.5388941
-2.448335	3 (	-1.20998
-1.383979	3 )	-0.3016679
-4.190668	3 *	0.1130822
-3.377754	3 +	-0.5599581
-1.390294	3 ,	-0.820946
-1.573143	3 -	-1.253931
-1.059771	3 .	-0.891628
-1.733922	3 /	-1.227997
-0.8722914	3 0	-0.3243279
-1.304177	3 1	-0.379685
-1.435746	3 2	-0.08005285
-1.444423	3 3	-0.4644909
-1.482459	3 4	-0.1999997
-1.375256	3 5	-0.02881336
-1.495624	3 6	-0.2002522
-1.554682	3 7	-0.1300356
-1.513746	3 8	-0.06732547
-1.528855	3 9	0.07561553
-1.760109	3 :	-1.53205
-2.276854	3 ;	0.1938444
-4.190668	3 <	-0.07567445
-2.027805	3 </s>
-0.640623	3 <w>	-0.2136176
-3.6466	3 =	-0.1842867
-3.678784	3 >	0.075697
-3.159259	3 ?	-0.7273148
-3.616637	3 @	-0.6335276
-2.608036	3 A	-0.5753134
-3.159259	3 B	-0.348891
-2.628375	3 C	-0.4272652
-2.327345	3 D	-0.8238679
-3.361364	3 E	-0.2572583
-3.394788	3 F	-0.1900753
-2.63136	3 G	-1.085244
-3.713547	3 H	-0.469787
-3.838485	3 I	-0.1765171
-2.87365	3 J	-0.8332947
-3.224526	3 K	-0.7673953
-3.513974	3 L	-0.1267146
-3.111486	3 M	-0.4981285
-3.34557	3 N	-0.3011946
-3.969233	3 O	-0.09977764
-2.935395	3 P	-0.7111741
-3.537455	3 Q	-0.3894138
-3.616637	3 R	-0.0810425
-3.33033	3 S	-0.229464
-3.179944	3 T	-0.05419374
-4.190668	3 U
-4.190668	3 V
-3.450305	3 W	-0.303193
-3.562279	3 X	-0.5156716
-3.838485	3 Y	-0.03519803
-4.491698	3 Z
-4.792728	3 [
-4.491698	3 \	-0.539419
-2.301366	3 ]	-0.3234972
-4.491698	3 ^	-0.1300568
-3.12063	3 _	-0.3020819
-2.82894	3 a	-0.7606235
-2.838485	3 b	-0.6349433
-2.792728	3 c	-0.8175724
-2.649713	3 d	-0.7170231
-2.779891	3 e	-1.095399
-3.301366	3 f	-0.1687668
-3.412517	3 g	-0.3657727
-3.6466	3 h	-0.3546773
-3.491698	3 i	-0.6940966
-3.678784	3 j	-0.3851386
-3.007398	3 k	-0.9170057
-3.537455	3 l	-0.273747
-2.884243	3 m	-0.648339
-3.792728	3 n	-0.05906763
-3.838485	3 o	-0.2695309
-2.470509	3 p	-1.252615
-3.94763	3 q	-0.1668357
-1.994768	3 r	-1.626467
-3.014576	3 s	-0.3653637
-2.394788	3 t	-1.244165
-4.190668	3 u	-0.1926982
-3.33033	3 v	-0.7622696
-4.315607	3 w
-3.236425	3 x	-0.5355334
-3.713547	3 y	-0.3036087
-4.491698	3 z
-4.190668	3 {	-0.706386
-4.792728	3 |
-3.678784	3 }	-0.3683342
-3.910737	4 !	-0.2305627
-2.439765	4 "	-1.089588
-4.433202	4 #
-4.734231	4 $
-2.329398	4 %	-0.3364824
-2.815154	4 &	-0.6075347
-2.820418	4 '	-0.4234591
-2.64081	4 (	-1.255736
-1.390429	4 )	-0.4256877
-4.734231	4 *
-3.455478	4 +	-0.4096172
-1.284445	4 ,	-0.4178326
-1.571369	4 -	-1.063574
-1.058545	4 .	-1.153366
-1.648584	4 /	-1.009367
-1.116917	4 0	-0.1316657
-1.475116	4 1	0.04789162
-1.489707	4 2	-0.1362469
-1.534751	4 3	-0.3696998
-1.344357	4 4	-0.3421503
-1.287229	4 5	-0.23981
-1.531743	4 6	-0.2425401
-1.494182	4 7	0.0144062
-1.466825	4 8	-0.1042426
-1.556407	4 9	0.3021049
-1.782894	4 :	-1.209217
-2.293323	4 ;	0.240016
-4.734231	4 <
-1.994659	4 </s>
-0.5584589	4 <w>	-0.1175876
-3.692839	4 =	-0.2523459
-3.889133	4 >	0.418431
-3.336292	4 ?	0.1439149
-3.65505	4 @	-0.2468499
-2.986043	4 A	-0.2210656
-3.16603	4 B	-0.252065
-2.734232	4 C	-0.5477387
-3.154448	4 D	-0.1852457
-3.24287	4 E	-0.2835192
-3.287074	4 F	-0.1910751
-3.35402	4 G	-0.32307
-3.55814	4 H	-0.1079151
-3.734232	4 I	-0.07741323
-3.372504	4 J	0.05180591
-3.035262	4 K	-0.863716
-3.692839	4 L	-0.2097512
-3.035262	4 M	-0.74822
-3.25711	4 N	-0.5057829
-3.889133	4 O
-3.336292	4 P	-0.1607596
-2.986043	4 Q	-0.6166191
-3.65505	4 R	-0.1521557
-3.271834	4 S	-0.1622416
-3.190164	4 T	-0.2370136
-3.734232	4 U	-0.1406984
-4.433202	4 V
-3.372504	4 W	-0.2463506
-3.779989	4 X	-0.1804804
-3.779989	4 Y	-0.1541541
-4.734231	4 [
-4.433202	4 \	-0.5418053
-2.290187	4 ]	-0.2580996
-4.035262	4 ^	-1.227839
-2.895382	4 _	-0.4032173
-2.847741	4 a	-0.5611079
-2.552388	4 b	-0.7950355
-2.734232	4 c	-0.5822034
-3.24287	4 d	-0.05313119
-3.391809	4 e	-0.2063408
-2.96338	4 f	-0.7209564
-2.96338	4 g	-0.6460323
-3.530112	4 h	-0.01984599
-3.100763	4 i	-0.7728029
-3.55814	4 j	-0.03094169
-3.071474	4 k	-0.662771
-3.319258	4 l	-0.6324471
-2.713042	4 m	-0.137088
-3.692839	4 n	-0.2821997
-3.55814	4 o	-0.7655973
-2.329398	4 p	-1.391171
-4.433202	4 q
-3.692839	4 r	-0.06069134
-2.901723	4 s	-0.5584199
-1.861493	4 t	-2.079689
-3.530112	4 u	-0.772552
-4.433202	4 v
-3.889133	4 w	-0.08057187
-3.132172	4 x	-0.6863804
-4.132172	4 y	-0.3951984
-4.25711	4 z
-4.132172	4 {	-0.706386
-4.734231	4 |
-3.779989	4 }	-0.06502104
-3.780555	5 !	-0.5514268
-2.576435	5 "	-1.095562
-4.780555	5 #
-1.880188	5 %	-0.4801683
-2.941706	5 &	-0.5485986
-2.923223	5 '	-0.4403515
-2.515737	5 (	-1.197765
-1.450344	5 )	-0.4222878
-3.275405	5 *	-0.2729423
-3.224252	5 +	-0.5311659
-1.33573	5 ,	-0.6213439
-1.469862	5 -	-1.399163
-1.095261	5 .	-1.416549
-1.664612	5 /	-1.164473
-0.9530564	5 0	-0.1716762
-1.530379	5 1	0.02729523
-1.566506	5 2	0.0065552
-1.567569	5 3	-0.4405478
-1.598997	5 4	-0.2359704
-1.489408	5 5	-0.05668581
-1.552668	5 6	-0.1845442
-1.619786	5 7	-0.1153011
-1.663615	5 8	-0.06156123
-1.637228	5 9	0.1801407
-1.791996	5 :	-1.652463
-2.355673	5 ;	0.2499229
-4.780555	5 <
-2.01044	5 </s>
-0.4959888	5 <w>	-0.2660861
-3.550106	5 =	-0.2179791
-4.479525	5 >
-3.418827	5 ?	-0.03011513
-3.501801	5 @	-0.3312739
-2.995225	5 A	-0.2775878
-3.236487	5 B	-0.2654357
-2.607369	5 C	-0.9817061
-2.941706	5 D	-0.417447
-3.458336	5 E	-0.2000369
-3.212353	5 F	-0.08978423
-3.525282	5 G	-0.1860497
-3.289193	5 H	-0.01901838
-3.666612	5 I	-0.151294
-3.826312	5 J	0.04027754
-2.882928	5 K	-1.019748
-3.634427	5 L	-0.1390285
-3.365582	5 M	-0.4264878
-3.236487	5 N	-0.2146037
-3.935457	5 O	-0.1989627
-3.064552	5 P	-0.5443069
-3.666612	5 Q	-0.3521544
-3.576435	5 R	0.006240383
-3.048161	5 S	-0.5061433
-3.275405	5 T	-0.140329
-4.081585	5 U	-0.2829256
-4.178495	5 V	-0.05855328
-3.262041	5 W	-0.5035609
-4.178495	5 X
-3.634427	5 Y	-0.2138355
-4.081585	5 Z	-0.1464161
-4.303434	5 [
-4.081585	5 \	-0.6158186
-2.426446	5 ]	-0.4829057
-4.178495	5 ^	-0.3020913
-3.009703	5 _	-0.5050356
-2.807427	5 a	-0.7124757
-3.017127	5 b	-0.5564018
-2.780555	5 c	-0.8588694
-3.382615	5 d	-0.0824713
-3.349191	5 e	-0.2862148
-3.048161	5 f	-0.2451675
-2.948046	5 g	-1.108462
-3.780555	5 h	-0.1256182
-3.365582	5 i	-0.3156775
-3.826312	5 j	-0.08137582
-2.647016	5 k	-1.175095
-3.550106	5 l	-0.7625192
-2.132195	5 m	-1.573906
-3.739162	5 n	-0.7385108
-4.178495	5 o	-0.3964156
-2.140074	5 p	-1.300351
-4.780555	5 q
-4.081585	5 r
-2.988163	5 s	-0.7301764
-1.887348	5 t	-2.208694
-4.479525	5 u	-0.54879
-4.780555	5 v
-3.95706	5 w	-0.2152624
-2.821513	5 x	-1.196441
-4.303434	5 y
-4.303434	5 z
-4.178495	5 {	-0.706386
-4.479525	5 |
-3.95706	5 }	0.1312939
-3.565257	6 !	-0.06111854
-2.62148	6 "	-0.9529039
-4.711385	6 #
-2.265781	6 %	-0.7983916
-3.039288	6 &	-0.3865716
-2.940533	6 '	-0.5557476
-2.836324	6 (	-0.8803075
-1.407542	6 )	-0.4427037
-3.808295	6 *	-0.4862913
-3.349658	6 +	-0.2586932
-1.359589	6 ,	-0.8418044
-1.563709	6 -	-1.167043
-1.110739	6 .	-1.217528
-1.531546	6 /	-1.27914
-1.107592	6 0	-0.2314926
-1.378543	6 1	-0.1731837
-1.494165	6 2	-0.1436574
-1.527262	6 3	-0.2893294
-1.524429	6 4	-0.3004631
-1.458775	6 5	-0.2430643
-1.520494	6 6	-0.3093308
-1.512454	6 7	-0.2164193
-1.58623	6 8	-0.3660438
-1.554533	6 9	0.08345699
-1.737334	6 :	-1.501776
-2.347773	6 ;	-0.1106958
-4.711385	6 <
-1.993715	6 </s>
-0.4973102	6 <w>	-0.06084871
-4.410356	6 =
-4.410356	6 >
-3.669993	6 ?	-0.02099198
-3.808295	6 @	-0.3495413
-3.143184	6 A	-0.355094
-3.048628	6 B	-0.3268217
-2.518261	6 C	-0.9767435
-3.131602	6 D	-0.1043418
-3.167317	6 E	-0.2217935
-3.410355	6 F	-0.08778728
-3.597442	6 G	-0.1291813
-3.389166	6 H	-0.04980624
-3.866287	6 I	-0.3975026
-3.711385	6 J	-0.02708884
-3.030144	6 K	-0.7656348
-3.349658	6 L	-0.2674378
-3.120321	6 M	-0.5291364
-3.098602	6 N	-0.52795
-4.109325	6 O	-0.1845304
-3.456113	6 P	-0.07500851
-3.349658	6 Q	-0.4642041
-3.456113	6 R	-0.3972047
-3.597442	6 S
-3.280022	6 T	-0.203683
-3.88789	6 U
-4.711385	6 V
-3.432632	6 W	-0.3488935
-3.432632	6 X	-0.4734709
-3.632204	6 Y	-0.1957377
-4.234264	6 Z	-0.281133
-4.711385	6 [
-4.012415	6 \	-0.3538342
-2.293084	6 ]	-0.3301102
-3.507265	6 ^	-0.7852906
-3.030144	6 _	-0.541688
-2.905205	6 a	-0.6182227
-2.738257	6 b	-0.8598337
-2.752344	6 c	-0.6011533
-2.532408	6 d	-0.9267886
-3.313445	6 e	-0.2652944
-2.509988	6 f	-0.8569056
-2.987109	6 g	-1.144087
-3.098602	6 h	-0.4163249
-3.389166	6 i	-0.3673494
-4.012415	6 j	0.009952083
-2.987109	6 k	-0.7294652
-3.565257	6 l	-0.2862101
-2.600796	6 m	-0.6271609
-3.866287	6 n	-0.08298447
-4.012415	6 o
-2.380972	6 p	-1.223753
-4.410356	6 q
-4.410356	6 r
-2.761995	6 s	-0.7283506
-1.86753	6 t	-2.052516
-4.410356	6 v
-3.88789	6 w	-0.04824767
-3.296412	6 x	-0.982645
-4.234264	6 y	-0.2812135
-4.711385	6 z
-4.012415	6 }	0.4624624
-4.639367	7 !
-2.715088	7 "	-0.9329991
-2.219411	7 %	-0.3085388
-3.048302	7 &	-0.2979996
-3.048302	7 '	-0.5438716
-2.800518	7 (	-0.8092308
-1.451846	7 )	-0.5304819
-4.338337	7 *
-4.037307	7 +
-1.39782	7 ,	-0.2940097
-1.577914	7 -	-1.512929
-1.085363	7 .	-1.334527
-1.653043	7 /	-1.136588
-1.126149	7 0	-0.03498077
-1.388216	7 1	0.0436765
-1.31839	7 2	-0.3336267
-1.429316	7 3	-0.4195057
-1.443744	7 4	-0.2500535
-1.249492	7 5	-0.3079382
-1.329311	7 6	-0.5836818
-1.343141	7 7	-0.1493146
-1.413799	7 8	-0.2158347
-1.30875	7 9	-0.04217052
-1.796758	7 :	-1.169231
-2.241427	7 ;	0.1888493
-1.979451	7 </s>
-0.6470344	7 <w>	-0.00444293
-4.338337	7 =
-3.639367	7 >	0.03939331
-3.408918	7 ?	0.01307517
-3.736277	7 @	-0.4919423
-2.875939	7 A	-0.2495604
-3.134217	7 B	-0.2981126
-2.826454	7 C	-0.3804926
-3.162246	7 D	-0.1971725
-3.071165	7 E	-0.3448822
-3.525424	7 F	-0.18607
-3.639367	7 G	-0.1507276
-3.277639	7 H	-0.2504162
-3.639367	7 I	-0.1251675
-3.560186	7 J	-0.4016417
-3.005898	7 K	-0.7726644
-3.463276	7 L	-0.1266619
-3.259156	7 M	-0.4503149
-3.408918	7 N	-0.295467
-4.037307	7 O
-3.317148	7 P	-0.2189586
-3.560186	7 Q	-0.1612489
-3.192209	7 R	-0.5047479
-3.208003	7 S	-0.1991232
-3.120853	7 T	-0.03292206
-3.685124	7 U	-0.0529715
-4.037307	7 V
-3.360613	7 W	-0.2728676
-3.639367	7 X	-0.01216483
-3.685124	7 Y	0.1854077
-4.639367	7 Z
-4.639367	7 [
-4.338337	7 \	-0.539419
-2.379296	7 ]	-0.3429638
-3.639367	7 ^	-0.5811706
-3.408918	7 _	-0.1551206
-2.846975	7 a	-0.533645
-3.071165	7 b	-0.3518528
-2.986154	7 c	-0.627238
-2.923364	7 d	-0.06035495
-3.384094	7 e	-0.1327628
-2.800518	7 f	-0.7169367
-3.639367	7 g	-0.2598957
-3.736277	7 h	-0.4188893
-3.736277	7 i	-0.2821141
-4.162246	7 j
-2.949171	7 k	-0.8051706
-3.560186	7 l	-0.4367468
-2.764306	7 m	-1.198413
-4.338337	7 n
-3.794269	7 o	-0.5920383
-2.457523	7 p	-1.30256
-4.338337	7 q
-3.317148	7 r	-0.3953885
-2.840026	7 s	-0.7885912
-1.781432	7 t	-2.33615
-4.639367	7 v
-4.162246	7 w	-0.2198867
-3.685124	7 x	-0.380509
-4.639367	7 y
-4.639367	7 z
-4.338337	7 }
-4.198236	8 !	-0.2053328
-2.516994	8 "	-1.483783
-4.374327	8 #
-4.675357	8 $
-2.245604	8 %	-0.1906431
-2.862443	8 &	-0.6206315
-3.012599	8 '	-0.7393386
-2.693085	8 (	-0.9395149
-1.522152	8 )	-0.6865366
-4.198236	8 *	-0.2820868
-3.633964	8 +	-0.3804024
-1.437562	8 ,	-0.9110285
-1.591496	8 -	-1.156222
-1.177598	8 .	-1.192326
-1.868499	8 /	-0.9105105
-1.024758	8 0	-0.2277257
-1.331948	8 1	-0.2208253
-1.288858	8 2	-0.2909645
-1.234448	8 3	-0.7991493
-1.362545	8 4	-0.6424067
-1.342918	8 5	-0.5560839
-1.397061	8 6	-0.5590452
-1.349636	8 7	-0.3585043
-1.368289	8 8	-0.314377
-1.363603	8 9	-0.4403571
-1.796835	8 :	-1.427865
-2.349021	8 ;	-0.0133028
-4.198236	8 <	-0.2114131
-2.002336	8 </s>
-0.6631101	8 <w>	-0.02979159
-4.073297	8 =
-4.675357	8 >
-3.396603	8 ?	0.1803046
-3.633964	8 @	-0.3231888
-2.951081	8 A	-0.3140013
-3.212959	8 B	-0.2267795
-2.855813	8 C	-0.3504324
-3.143878	8 D	-0.1180098
-3.313629	8 E	-0.07417118
-3.633964	8 F	-0.05350264
-3.529229	8 G	-0.2038707
-3.156843	8 H	0.02308565
-3.675357	8 I	-0.1252916
-3.596175	8 J
-3.131289	8 K	-0.7708333
-3.471237	8 L	-0.1618853
-3.073297	8 M	-0.4724346
-3.198236	8 N	-0.5017041
-3.561413	8 O	-0.5206638
-3.596175	8 P	-0.1121231
-3.830259	8 Q	-0.09592754
-3.596175	8 R	-0.4140609
-3.107155	8 S	-0.565648
-3.277417	8 T	-0.1152555
-3.851862	8 U	-0.1144914
-4.198236	8 V
-3.156843	8 W	-0.1976483
-3.772267	8 X	-0.08415841
-3.976387	8 Y	-0.3475399
-4.198236	8 Z
-4.675357	8 [
-2.460513	8 ]	-0.2586278
-4.073297	8 ^	-0.3020913
-3.396603	8 _	-0.1376253
-3.003259	8 a	-0.5855517
-2.890027	8 b	-0.4252645
-2.541818	8 c	-1.014137
-3.313629	8 d	-0.02728149
-3.675357	8 e	-0.2326301
-3.228199	8 f	-0.5882747
-3.012599	8 g	-0.9095756
-3.772267	8 h	-0.01287425
-3.561413	8 i	-0.2290467
-3.633964	8 j	-0.1246447
-2.842848	8 k	-0.930071
-3.830259	8 l	-0.5133767
-2.658323	8 m	-0.8883089
-3.772267	8 n	-0.1895037
-3.471237	8 o	-0.5828651
-2.28266	8 p	-1.523554
-4.198236	8 q
-3.851862	8 r	-0.3920322
-2.830259	8 s	-0.6210638
-1.751595	8 t	-2.068872
-2.77773	8 v	-1.878785
-3.851862	8 w	-0.1340224
-3.353137	8 x	-0.4906254
-4.073297	8 y
-4.675357	8 z
-3.976387	8 }	0.2922924
-4.025733	9 !	-0.8919557
-3.180635	9 "	-0.706143
-4.39371	9 #	-0.4855838
-2.532374	9 %	-0.4425976
-2.902348	9 &	-0.5233534
-3.09268	9 '	-0.5976136
-3.099979	9 (	-0.8960065
-1.654401	9 )	-0.5759128
-4.268771	9 *	0.1130822
-3.666711	9 +	-0.2596203
-1.626801	9 ,	-0.7095065
-1.812025	9 -	-1.172328
-1.395741	9 .	-1.028249
-1.960207	9 /	-0.9805643
-1.270839	9 0	-0.281256
-1.429607	9 1	-0.3207833
-1.479014	9 2	-0.3738387
-1.43213	9 3	-0.7913252
-1.32281	9 4	-0.6588032
-1.268337	9 5	-0.6182607
-1.256567	9 6	-0.9085637
-1.112525	9 7	-0.6159741
-1.056317	9 8	-0.7662398
-0.6724488	9 9	-0.6584494
-1.938865	9 :	-1.436071
-2.411438	9 ;	0.300033
-4.268771	9 <	-0.07567445
-1.977624	9 </s>
-0.8942976	9 <w>	0.0188992
-4.39371	9 =
-3.829438	9 ?	-0.004293501
-3.829438	9 @	-0.3180055
-3.064651	9 A	-0.4604127
-3.455858	9 B	-0.1410567
-3.038322	9 C	-0.6157562
-3.302629	9 D	-0.4445952
-3.724703	9 E	-0.1740593
-3.247582	9 F	-0.5613285
-3.967741	9 G
-3.69474	9 H	0.03178003
-3.916589	9 I	-0.1107136
-3.870831	9 J	-0.08032377
-3.258047	9 K	-0.8879653
-4.047336	9 L
-3.69474	9 M	-0.1161456
-3.122643	9 N	-0.5450611
-4.268771	9 O
-3.365681	9 P	-0.5285032
-3.916589	9 Q	-0.3364094
-3.615558	9 R	-0.2499375
-3.829438	9 S	-0.1125347
-3.326763	9 T	-0.134396
-4.268771	9 U
-4.870831	9 V
-3.79165	9 W	0.03507295
-3.666711	9 X	-0.3204111
-3.967741	9 Y	-0.5109416
-3.829438	9 Z	-1.076876
-4.39371	9 [
-2.496083	9 ]	-0.1724461
-3.528408	9 _	-0.3389209
-2.821613	9 a	-0.9761632
-3.18959	9 b	-0.3415538
-3.071491	9 c	-0.6842885
-3.615558	9 d	-0.1920458
-3.569801	9 e	-0.2118739
-3.509103	9 f	-0.4098244
-4.171861	9 g	-0.2827395
-4.047336	9 h	-0.1687482
-3.967741	9 i	-0.548506
-4.268771	9 j	-0.1925759
-3.352317	9 k	-0.8527286
-3.756888	9 l	-0.4140483
-3.085501	9 m	-0.4367034
-4.047336	9 n	-0.01147901
-4.047336	9 o	-0.2204055
-2.849642	9 p	-0.9656472
-4.39371	9 q	-0.2825063
-4.171861	9 r	-0.142076
-3.365681	9 s	-0.5397676
-1.927336	9 t	-2.511073
-4.39371	9 u	-0.6896769
-4.870831	9 v
-3.640382	9 w	-0.5043589
-3.509103	9 x	-0.2687002
-4.39371	9 y
-4.268771	9 z
-4.268771	9 }	0.0246883
-4.468505	: !	-0.2379651
-3.427112	: "	-0.3971925
-2.818521	: #	-1.798129
-4.945626	: $
-3.769535	: '	-0.184743
-2.996236	: (	-1.428032
-2.520745	: )	-0.7414331
-4.644596	: *
-3.831683	: +	-0.2691373
-3.866445	: ,	0.1400045
-2.228788	: -	-1.496213
-3.769535	: .	-0.2624741
-0.8456004	: /	-3.16351
-1.751945	: 0	-1.792118
-1.844567	: 1	-0.9105417
-1.88834	: 2	-1.241589
-1.92032	: 3	-1.541688
-1.984205	: 4	-1.432873
-1.972036	: 5	-1.54762
-3.292414	: 6	-0.2045231
-3.312158	: 7	-0.2861486
-2.945626	: 8	-0.3565902
-3.167475	: 9	-0.4768507
-2.52238	: :	-0.3784241
-4.644596	: <
-2.012139	: </s>
-0.1368684	: <w>	-0.5357885
-4.468505	: =	-0.276919
-4.100528	: >	-0.2272435
-3.945626	: ?	-0.4400221
-2.996236	: A	-0.9831679
-3.831683	: B	-0.168404
-2.57827	: C	-0.9145622
-2.793338	: D	-0.9942143
-4.122131	: E	-0.4169331
-3.354562	: F	-1.041528
-4.122131	: G	-0.1535267
-3.945626	: H	-0.2846752
-3.741506	: I	-0.1135166
-4.246656	: J	-0.3324195
-4.246656	: K	-0.2953826
-4.644596	: L
-3.866445	: M	-0.2199085
-3.623407	: N	-0.4395527
-4.246656	: O
-3.139446	: P	-1.073009
-4.644596	: Q
-3.715177	: R	-0.2715403
-3.547686	: S	-0.1473953
-3.389324	: T	-0.3341614
-4.122131	: U	-0.06789901
-3.094368	: V	-1.897171
-4.246656	: W	-0.2753765
-4.122131	: X	-0.2536914
-4.945626	: Y
-4.945626	: [
-3.302173	: \	-0.3918675
-3.547686	: ]	-0.3582866
-4.122131	: ^	-0.1162926
-4.644596	: _
-4.945626	: `
-3.160296	: a	-0.7549391
-3.377424	: b	-0.9620857
-3.25543	: c	-0.4150434
-3.016207	: d	-1.121222
-3.440476	: e	-0.4126657
-3.831683	: f	-0.4323675
-4.042536	: g	-0.2096838
-3.016207	: h	-1.034532
-3.741506	: i	-0.5039789
-4.644596	: j	-0.5484437
-4.644596	: k
-3.389324	: l	-0.8600861
-3.690354	: m	-0.2044166
-3.167475	: n	-0.8685462
-3.139446	: o	-0.8048445
-3.011128	: p	-0.9350279
-4.100528	: q	0.8016772
-3.514262	: r	-1.014597
-2.958854	: s	-0.9415175
-3.354562	: t	-0.7029172
-3.623407	: u	-0.4568362
-3.282868	: v	-1.194998
-3.205263	: w	-0.9956523
-3.945626	: x	-0.4218237
-4.468505	: y	-0.2644662
-4.945626	: z
-4.468505	: |	0.8931407
-4.132612	; !
-3.071914	; "	-0.6367527
-2.266325	; &	-1.276214
-3.433642	; '	-0.3930992
-3.956521	; (
-2.509362	; )	-0.3546737
-3.734672	; ,	-0.1953437
-2.752401	; -	-0.8177695
-3.091219	; .	-0.6280425
-3.178369	; /	-1.479383
-3.831582	; 0	-0.1055751
-2.601133	; 1	-0.7273673
-2.902163	; 2	-0.1658561
-3.25755	; 3	-0.3174743
-3.25755	; 4	-0.0961881
-3.530552	; 5	-0.07390064
-3.588544	; 6	-0.2939914
-3.831582	; 7	-0.1922636
-3.479399	; 8	-0.1537595
-3.956521	; 9
-3.734672	; :	-1.078549
-3.956521	; ;	-0.2812264
-3.831582	; <	-0.3254002
-1.96382	; </s>
-0.0207447	; <w>	-0.9594536
-3.956521	; >	-0.2819642
-4.433642	; @
-3.392249	; A	-0.4357816
-4.132612	; B	-0.4661168
-3.111423	; C	-0.616047
-3.956521	; D	-0.2786095
-3.956521	; E	-0.2800654
-3.354461	; F	-0.7082436
-4.433642	; G
-4.433642	; H
-4.132612	; I
-3.530552	; K	-0.6800807
-3.734672	; L	-0.2119753
-3.588544	; M	-0.2605623
-4.132612	; O	-0.5275761
-4.132612	; P	-0.4732741
-4.433642	; Q
-4.433642	; R
-3.734672	; S
-3.956521	; T
-3.734672	; W	-0.3148352
-4.132612	; [	-0.5140411
-4.433642	; \
-3.956521	; ]	-0.06883621
-2.831582	; a	-0.5857887
-3.287514	; b	-0.8536653
-3.203193	; c	-0.721516
-3.734672	; d	-0.4401169
-3.588544	; e	-0.03273913
-2.986484	; f	-1.372322
-3.610147	; h	0.1404066
-3.091219	; i	-0.4852028
-3.956521	; j	-0.6943127
-3.956521	; k
-3.530552	; l	-0.3035127
-3.433642	; m	-0.4173584
-3.610147	; n	-0.2087885
-3.831582	; o	-0.4641752
-3.154888	; p	-1.0635
-3.530552	; r	-0.3671127
-2.928492	; s	-0.3191201
-3.053431	; t	-0.6265883
-3.392249	; u	-0.8115379
-4.433642	; v
-4.132612	; w
-3.831582	; z
-2.743446	; }	-0.4492306
-2.113943	< !	-0.4798737
-2.441302	< $	-0.4379628
-3.344392	< (
-3.344392	< ,
-1.611999	< -	-1.536817
-2.645422	< .	0.2181543
-0.8206458	< /	-1.191387
-2.08912	< 0	-0.6525018
-2.08912	< 1	-0.5138593
-2.520897	< 2	-0.1431204
-2.645422	< 3	-0.233325
-2.39015	< 4	-0.3198801
-2.520897	< 5	-0.2093179
-3.344392	< 6
-3.043362	< 7	-0.5487866
-3.344392	< 8
-2.645422	< 9	-0.2592216
-1.731608	< <	-1.484822
-2.113943	< </s>
-0.6258906	< <w>	-0.3108943
-2.043362	< =	-0.4179608
-2.113943	< >	-0.2535118
-2.022173	< ?	-1.298114
-2.344392	< A	-0.6905591
-1.545052	< B	-1.136155
-2.265211	< C	-0.5928289
-2.867271	< D	-0.2254142
-3.043362	< E	-0.5053642
-1.881994	< F	-0.7830595
-2.499294	< G	-0.4403365
-2.043362	< I	-0.5180443
-1.929419	< K	-0.9643915
-3.043362	< L
-2.302999	< M	-0.4608728
-3.043362	< N
-3.043362	< O	-0.5429502
-2.742332	< P	-0.1173394
-2.065639	< R	-1.182521
-1.867271	< S	-1.040012
-2.168301	< T	-0.5382956
-2.742332	< U	-0.3918858
-2.520897	< V	-0.2977324
-3.043362	< W
-3.344392	< X
-2.742332	< [	-0.1910317
-3.344392	< \
-1.78809	< a	-0.6174924
-1.721143	< b	-1.430578
-1.69118	< c	-0.5847326
-1.499294	< d	-0.6005318
-2.39015	< e	-0.4112974
-2.140272	< f	-0.6462098
-1.800324	< g	-1.142428
-1.306966	< h	-0.8428514
-1.611999	< i	-1.060016
-2.742332	< j	-0.395766
-3.344392	< k
-2.230449	< l	-0.5790576
-1.611999	< m	-0.8752695
-2.113943	< n	-0.502071
-2.140272	< o	-1.001451
-1.946452	< p	-0.4260093
-1.710924	< r	-0.6881772
-1.420113	< s	-1.055458
-1.511883	< t	-0.5588408
-2.113943	< u	-0.8115012
-2.441302	< v	-0.5241288
-3.043362	< w	-0.534104
-1.800324	< x	-1.292361
-3.657465	<s> !	-0.4012091
-2.974337	<s> "	-0.07645237
-4.369596	<s> #	-0.1038721
-4.638442	<s> $	-0.07629941
-4.013718	<s> %	-0.08043981
-3.751146	<s> &	-0.3819353
-2.646899	<s> '	-0.05787015
-2.906623	<s> (	-0.02498209
-2.878234	<s> )	-0.1734364
-3.921247	<s> *	-0.01240695
-4.204786	<s> +	-0.05788225
-2.112749	<s> ,	-0.564841
-2.594799	<s> -	-0.2174742
-2.005478	<s> .	-0.521596
-2.871816	<s> /	0.04689312
-2.524498	<s> 0	-0.3494195
-2.59536	<s> 1	-0.3569458
-2.709023	<s> 2	-0.1276541
-2.994284	<s> 3	-0.1808354
-3.034833	<s> 4	-0.3081249
-3.012982	<s> 5	0.01743388
-3.07192	<s> 6	-0.1189513
-3.163393	<s> 7	-0.03957748
-3.130393	<s> 8	-0.1854007
-2.918874	<s> 9	-0.2913446
-2.850071	<s> :	-0.30567
-3.34209	<s> ;	-0.2081817
-4.293208	<s> <	-0.1367301
-0.7836411	<s> <w>	-2.13709
-3.660718	<s> =	-0.05551267
-3.886942	<s> >	-0.1264494
-3.366268	<s> ?	-0.1157151
-4.013718	<s> @	-0.08937988
-2.54502	<s> A	-0.2797703
-2.788058	<s> B	-0.1391261
-2.533175	<s> C	-0.2932192
-2.79512	<s> D	-0.1638736
-2.688355	<s> E	-0.1554606
-2.878234	<s> F	-0.1918633
-2.952061	<s> G	-0.1554021
-2.863404	<s> H	-0.07810748
-2.516226	<s> I	-0.2214991
-3.158229	<s> J	-0.1848238
-3.337411	<s> K	-0.0542568
-2.810058	<s> L	-0.3196036
-2.707202	<s> M	-0.1317301
-2.791133	<s> N	-0.2157972
-2.875549	<s> O	-0.1286826
-2.718244	<s> P	-0.3229338
-3.971656	<s> Q	-0.1296566
-2.657789	<s> R	-0.1897464
-2.479003	<s> S	-0.3189367
-2.410922	<s> T	-0.3060554
-2.953981	<s> U	-0.193538
-3.340525	<s> V	-0.1867344
-2.836157	<s> W	-0.1268451
-4.044207	<s> X	-0.1776782
-3.379736	<s> Y	-0.06049299
-4.076999	<s> Z	-0.1606273
-3.743177	<s> [	-0.006827563
-4.830327	<s> \	-0.07151056
-3.802298	<s> ]	-0.1619266
-5.48354	<s> ^
-3.583172	<s> _	-0.1619166
-4.46235	<s> `	0.002988309
-1.219064	<s> a	-1.386938
-1.969257	<s> b	-0.5922146
-1.602955	<s> c	-0.7943819
-1.554223	<s> d	-1.082348
-1.032544	<s> e	-1.445927
-1.790781	<s> f	-0.837044
-1.81965	<s> g	-0.963497
-1.468159	<s> h	-1.080563
-1.252108	<s> i	-1.391795
-3.062759	<s> j	-0.3479546
-2.290137	<s> k	-0.5995594
-1.49917	<s> l	-0.9099916
-1.736633	<s> m	-0.7294577
-1.259551	<s> n	-1.383318
-1.222372	<s> o	-1.479096
-1.784222	<s> p	-0.6700686
-3.046582	<s> q	-0.3548821
-1.307941	<s> r	-1.206543
-1.311418	<s> s	-1.25068
-1.172602	<s> t	-1.283533
-1.658049	<s> u	-1.061685
-2.086469	<s> v	-0.6336243
-1.907948	<s> w	-0.6822293
-2.777676	<s> x	-0.2612665
-1.889534	<s> y	-0.7641902
-3.30027	<s> z	-0.1054853
-4.78457	<s> {	0.1975928
-3.840087	<s> |	-0.3560433
-4.46235	<s> }	-0.1131441
-4.353206	<s> ~	-0.05862916
-4.28567	<w> !	0.2405133
-2.482764	<w> "	-0.8468997
-3.78357	<w> #	-0.9586293
-3.82333	<w> $	-0.3396484
-4.716699	<w> %	-0.6878482
-3.070632	<w> &	-1.445231
-2.605251	<w> '	-0.04442286
-2.137022	<w> (	-0.8044767
-3.4262	<w> )	-0.7178323
-3.460046	<w> *	-0.3873318
-3.726536	<w> +	-1.268267
-2.857704	<w> ,	-0.7678645
-2.352509	<w> -	-1.549581
-2.71731	<w> .	-0.409487
-3.544242	<w> /	-1.212778
-2.941422	<w> 0	-1.135
-2.078693	<w> 1	-1.21562
-2.22351	<w> 2	-0.9969099
-2.693897	<w> 3	-0.8514781
-2.86544	<w> 4	-0.5461779
-2.906999	<w> 5	-0.405962
-2.972487	<w> 6	-0.7160606
-3.031097	<w> 7	-0.7516434
-3.103805	<w> 8	-0.5526148
-3.18722	<w> 9	-0.1893222
-3.175094	<w> :	-0.8668078
-4.090979	<w> ;	-0.2618471
-3.804377	<w> <	-0.08200669
-1.999314	<w> </s>
-3.001131	<w> <w>	-0.7806287
-3.767766	<w> =	-1.18981
-3.268734	<w> >	-1.009282
-4.222573	<w> ?	-0.4054772
-4.162412	<w> @	-1.413007
-1.890948	<w> A	-0.8302755
-2.073354	<w> B	-0.9527397
-1.89658	<w> C	-0.8550484
-2.159373	<w> D	-1.725399
-2.20476	<w> E	-1.33785
-2.211386	<w> F	-1.151052
-2.281241	<w> G	-1.489074
-2.178035	<w> H	-1.105712
-1.839229	<w> I	-1.161021
-2.414043	<w> J	-0.7504194
-2.749117	<w> K	-1.314805
-2.227942	<w> L	-1.23883
-2.038883	<w> M	-1.558306
-2.292379	<w> N	-1.059389
-2.35807	<w> O	-1.104172
-2.019306	<w> P	-0.9780056
-3.264321	<w> Q	-0.8326718
-2.170265	<w> R	-0.9313622
-1.851354	<w> S	-1.264566
-1.744349	<w> T	-1.376998
-2.360354	<w> U	-0.9899659
-2.775933	<w> V	-0.9236958
-2.134736	<w> W	-1.297769
-3.700711	<w> X	-0.435281
-2.810847	<w> Y	-1.360483
-3.500175	<w> Z	-0.6878307
-3.030677	<w> [	0.2024963
-4.596879	<w> \	-0.2016084
-3.536256	<w> ]	-1.203425
-4.603801	<w> ^	-0.5938946
-4.450997	<w> _	-0.8922367
-3.990974	<w> `	-0.7002095
-1.002201	<w> a	-1.307064
-1.471508	<w> b	-1.484448
-1.41284	<w> c	-2.917328
-1.629169	<w> d	-1.998023
-1.69524	<w> e	-1.484334
-1.478848	<w> f	-2.049314
-1.953837	<w> g	-2.343509
-1.565278	<w> h	-1.678893
-1.271819	<w> i	-1.106987
-2.644032	<w> j	-0.8749783
-2.551866	<w> k	-1.918218
-1.761635	<w> l	-2.103362
-1.575985	<w> m	-1.86393
-1.819957	<w> n	-1.9786
-1.212919	<w> o	-2.227085
-1.463387	<w> p	-1.846145
-2.743932	<w> q	-1.837845
-1.642637	<w> r	-2.072728
-1.318823	<w> s	-2.116018
-0.9129267	<w> t	-2.445966
-2.025866	<w> u	-2.388594
-2.247022	<w> v	-0.7014706
-1.349828	<w> w	-3.330709
-3.798057	<w> x	-0.4701633
-2.066948	<w> y	-2.346273
-3.807433	<w> z	-1.089196
-4.116339	<w> {	-0.4272227
-3.053008	<w> |	-0.8528807
-4.167491	<w> }	-1.23732
-4.112383	<w> ~	-0.5108002
-1.486182	= "	-0.245743
-3.029215	= %	-1.39046
-2.576917	= &	-0.4793832
-1.855543	= '	-0.0201422
-3.506336	= (
-2.765973	= )	-0.8760628
-4.108396	= *
-3.807366	= ,	0.9024384
-2.564328	= -	-0.8490561
-4.108396	= .
-2.877947	= /	-0.3025243
-1.838883	= 0	-0.4712191
-1.14745	= 1	-0.3447894
-1.419087	= 2	-0.8617618
-1.724581	= 3	-0.5962481
-1.836554	= 4	-0.5779557
-1.712196	= 5	-0.4646884
-1.978062	= 6	-0.5293806
-2.08309	= 7	-0.5375967
-1.888288	= 8	-0.5865195
-2.189318	= 9	-0.2450321
-3.263298	= :	0.09066796
-4.108396	= <
-2.018491	= </s>
-0.872615	= <w>	0.2974732
-0.3308966	= =	-2.173626
-2.360208	= >	-0.2620369
-4.108396	= ?
-4.108396	= @
-2.617034	= A	-0.2043537
-2.464943	= B	-0.364943
-2.576917	= C	-0.2158524
-2.962268	= D	-0.2413362
-2.199911	= E	-0.7473897
-2.645998	= F	-0.3689305
-2.645998	= G	-0.3396027
-2.376002	= H	-0.6457428
-2.807366	= I	-0.09228779
-3.284901	= J	-0.171813
-3.807366	= K
-3.067003	= L	-0.3074513
-2.807366	= M	0.08124289
-2.506336	= N	-0.5716277
-3.205306	= O	-0.1040155
-2.829642	= P	-0.1714075
-4.108396	= Q
-3.029215	= R	-0.3586126
-2.506336	= S	-0.2768933
-2.661238	= T	-0.1930121
-3.029215	= U	-0.26345
-3.205306	= V	-0.3822064
-2.728185	= W	-0.1389295
-3.631275	= X
-4.108396	= Y
-4.108396	= Z
-3.154153	= [	-0.1820636
-2.877947	= \	-0.8722705
-3.108396	= ]	-0.1002367
-4.108396	= ^
-2.661238	= a	-0.4734349
-2.932305	= b	-0.07816201
-2.4182	= c	-0.5403413
-2.436298	= d	-0.811161
-2.746668	= e	-0.3256722
-2.309055	= f	-0.4712448
-2.807366	= g	-0.3600331
-2.436298	= h	-0.3626511
-2.528612	= i	-0.3135043
-3.205306	= j	-0.1336822
-3.631275	= k
-2.693423	= l	-0.5965267
-2.765973	= m	-0.3018104
-2.474927	= n	-0.5481972
-3.154153	= o	-0.4219263
-1.971675	= p	-1.067923
-3.807366	= q
-2.765973	= r	-0.6420216
-2.344968	= s	-0.7152628
-2.257138	= t	-0.837346
-3.108396	= u	-0.5592831
-2.631275	= v	-1.064738
-2.962268	= w	-0.220712
-3.409426	= x	-0.1452021
-2.829642	= y	-0.02674884
-3.631275	= z
-3.506336	= {	-0.05853245
-3.154153	= |	0.6341968
-2.904276	= ~	-0.9943743
-2.401654	> "	-0.769056
-3.933133	> #
-3.632103	> $
-3.109638	> &	-0.6539111
-3.632103	> '	-0.4592501
-2.67786	> (	-0.3197897
-3.234163	> )	0.3436765
-2.441771	> ,	-0.05382526
-3.933133	> -
-1.751289	> .	-1.04946
-3.632103	> /
-3.933133	> 0
-2.518159	> 1	-0.3914279
-2.552922	> 2	-0.06036481
-2.853952	> 3	-0.2419241
-3.456012	> 4	-0.2824844
-3.234163	> 5	0.02006084
-3.632103	> 6
-3.234163	> 7
-3.331073	> 8	-0.3534679
-3.234163	> 9	-0.04309403
-3.456012	> :	0.285547
-2.81919	> ;	0.8035047
-1.68516	> <	-0.9576197
-2.041038	> </s>
-0.1255302	> <w>	-0.3027291
-2.632103	> =	-0.5773684
-0.9445739	> >	-1.396194
-3.234163	> @	-0.2133819
-2.501769	> A	-0.271534
-2.97889	> B	-0.06682538
-2.234163	> C	-0.7089912
-2.787005	> D	-0.1763378
-3.234163	> E	-0.144744
-2.853952	> F	-0.6986358
-3.088035	> G	-0.2086431
-2.933133	> H	-0.112565
-2.59071	> I	-0.2249091
-3.933133	> J
-3.632103	> K	-0.5424978
-3.109638	> L	-0.13203
-2.89174	> M	-0.0621655
-2.97889	> N	-0.09999921
-3.088035	> O	-0.2856124
-2.97889	> P	-0.2293539
-3.109638	> R	-0.1027261
-2.610914	> S	-0.1516582
-2.501769	> T	-0.6728181
-3.234163	> U	-0.05263401
-2.97889	> W	-0.5639707
-3.109638	> Y	-0.4391451
-3.109638	> [	-0.3368331
-2.518159	> \	-1.367391
-2.552922	> ^	-1.360579
-2.063901	> _	-0.9092022
-3.234163	> a
-3.331073	> c
-3.234163	> d	-0.6035876
-3.933133	> e
-3.109638	> h	-0.3238238
-3.088035	> i	-0.3924151
-3.933133	> l
-3.933133	> m
-3.456012	> n
-3.456012	> o	-0.2167378
-2.97889	> p	-0.2865569
-2.107058	> r	-1.717602
-3.331073	> s	-0.5142693
-3.331073	> t	-0.3477708
-3.933133	> v
-3.456012	> w	-0.2677902
-3.030043	> x	-0.7911998
-2.063674	? !	0.2527014
-1.039895	? "	-2.461313
-4.396112	? #
-4.396112	? $
-4.095082	? %	-0.5473935
-3.697142	? &	-0.2810603
-1.598153	? '	-2.070267
-3.572617	? (	-0.3308883
-1.83981	? )	-0.01963711
-3.551014	? *	-0.2082679
-2.509621	? ,	-0.08574724
-3.14084	? -	-0.2388401
-2.551014	? .	-1.183295
-3.572617	? /	-0.3364881
-4.095082	? 0
-3.551014	? 1	-0.1483325
-4.396112	? 3
-4.396112	? 4
-3.918991	? 5
-4.095082	? 6	-0.5135907
-4.396112	? 7
-4.396112	? 8
-2.964748	? :	-0.1161458
-3.220021	? ;	0.1551168
-3.282169	? <	-0.5619703
-2.030624	? </s>
-0.1399238	? <w>	-0.4469223
-3.44187	? =	-0.3395295
-2.852044	? >	-0.2542518
-1.855783	? ?	-0.6373444
-3.697142	? @	-0.4523965
-3.316931	? A	-0.2315257
-3.396112	? B	-0.9977565
-2.150599	? C	-1.21867
-3.14084	? D	-0.3916308
-3.918991	? E
-2.688542	? F	-0.6294398
-3.493022	? G	-0.3834904
-3.794052	? H
-2.275538	? I	-1.364974
-3.220021	? J	-0.08324659
-3.794052	? K	-0.3545821
-3.551014	? L	-0.3353629
-3.073893	? M	-0.3756842
-2.576568	? N	-1.014396
-2.890962	? O	-1.505197
-2.40934	? P	-1.09575
-3.918991	? Q	-0.2822893
-3.015901	? R	-0.7582278
-3.117358	? S	-0.470258
-3.015901	? T	-0.4323623
-3.794052	? U	-0.1919682
-3.44187	? V	-0.8139789
-3.316931	? W	-0.6069572
-4.396112	? Z
-3.918991	? [
-2.509621	? ]	-0.2760994
-4.396112	? ^
-2.933714	? _	-1.155216
-2.60372	? a	-0.7921396
-2.864633	? b	-1.116608
-2.327926	? c	-1.007365
-2.83981	? d	-1.041457
-2.90475	? e	-0.6334523
-3.282169	? f	-0.2576756
-3.117358	? g	-0.8007015
-3.44187	? h	0.008561909
-1.877598	? i	-1.744353
-3.794052	? j	-0.1928515
-3.697142	? k	-0.2828992
-2.890962	? l	-0.9037681
-2.998172	? m	-0.3262141
-2.576568	? n	-1.464715
-2.714871	? o	-0.9468446
-1.996438	? p	-1.423211
-2.663718	? q	-0.4520185
-2.663718	? r	-1.313333
-2.383275	? s	-0.6206639
-1.969601	? t	-1.013957
-3.572617	? u	-0.6828724
-2.998172	? v	-0.9828214
-3.551014	? w	-0.1741556
-3.220021	? x	-1.174966
-4.396112	? y
-4.095082	? z	-0.5476629
-3.493022	? {	-0.4677721
-3.026533	@ "	-0.3965017
-3.628593	@ %
-3.628593	@ *
-2.452502	@ .	-0.8519703
-2.04881	@ 0	-0.4952638
-2.549412	@ 1	-0.3345158
-3.151472	@ 2	-0.2797753
-2.783495	@ 5	-0.331411
-2.929623	@ 8	-0.2828806
-2.072291	@ </s>
-0.8285639	@ <w>	-1.101249
-2.674351	@ >	-0.1930672
-3.327563	@ @	-0.5485798
-2.805098	@ A	-0.6822274
-2.929623	@ B	-0.2830026
-3.151472	@ C
-2.373321	@ D	-1.243206
-3.327563	@ E	-0.5488392
-3.026533	@ F	-0.3704363
-3.628593	@ G
-3.628593	@ H
-2.929623	@ I	-0.611452
-3.151472	@ K	-0.170328
-2.398144	@ L	-0.9256228
-2.805098	@ M	0.03290391
-3.327563	@ N	-0.5476524
-3.628593	@ O
-3.327563	@ P	-0.5456216
-3.628593	@ Q
-3.327563	@ R	-0.5293854
-3.151472	@ S
-2.587201	@ T	-0.5321295
-3.628593	@ U
-3.327563	@ W
-3.628593	@ \
-3.327563	@ _	-0.5486818
-1.491873	@ a	-0.7721856
-1.470231	@ b	-0.7740054
-1.302257	@ c	-0.8176273
-1.52479	@ d	-1.057835
-1.599209	@ e	-0.8076152
-1.938397	@ f	-0.8246669
-1.789744	@ g	-1.056695
-1.632958	@ h	-0.64417
-0.6681225	@ i	-1.2723
-1.783495	@ j	-0.5890234
-1.91259	@ k	-0.6941086
-1.354435	@ l	-1.274195
-1.632958	@ m	-0.5669644
-1.571688	@ n	-1.005709
-2.005344	@ o	-0.2535695
-1.599209	@ p	-0.4639381
-2.04881	@ q	-0.2492839
-1.424473	@ r	-0.9398603
-1.220353	@ s	-1.101228
-1.655465	@ t	-0.6023242
-1.556711	@ u	-0.7768347
-2.373321	@ v	0.4525961
-1.91259	@ w	-0.3368016
-2.452502	@ x	-0.9718343
-1.689074	@ y	-1.666302
-2.373321	@ z	-0.3201144
-3.327563	@ {	-0.5472013
-4.179022	A !	-0.6513349
-3.366109	A "	-1.492807
-3.550634	A $	-1.133586
-4.434709	A %	-0.2552173
-3.28048	A &	-1.139484
-2.762659	A '	-1.107461
-3.517841	A (	-0.9279235
-2.340173	A )	-0.2733781
-4.179022	A *	-0.3175878
-4.14426	A +	-0.3454875
-2.298209	A ,	-0.2519219
-2.619714	A -	-0.6892689
-1.850473	A .	-1.052903
-3.150994	A /	-0.5336494
-3.82684	A 0	-0.07705817
-2.833322	A 1	-0.156029
-3.000525	A 2	0.02524531
-3.124665	A 3	-0.402353
-2.750348	A 4	-0.3091394
-3.533928	A 5	-0.1061689
-3.568008	A 6	-0.1345135
-3.400871	A 7	-0.4528232
-3.576962	A 8	-0.3711912
-3.73969	A 9	-0.114315
-2.925765	A :	-0.8576977
-3.614751	A ;	-0.1149427
-1.995278	A </s>
-0.9184741	A <w>	-0.4197478
-4.957174	A =
-4.656144	A >
-3.860264	A ?	-0.1797671
-5.258204	A @
-2.515479	A A	-1.190602
-2.217206	A B	-1.465864
-1.830231	A C	-1.640527
-2.030317	A D	-1.684411
-2.716624	A E	-0.8880764
-2.170068	A F	-1.689934
-2.223575	A G	-2.076954
-2.794311	A H	-1.105836
-1.976035	A I	-1.695194
-3.533928	A J	-0.956139
-2.818871	A K	-1.074673
-1.6515	A L	-1.942162
-1.928399	A M	-1.873849
-1.535817	A N	-1.942332
-2.906021	A O	-1.098634
-2.14027	A P	-1.753925
-2.776761	A Q	-1.13407
-1.531884	A R	-2.391703
-1.808725	A S	-2.236514
-1.493878	A T	-2.300918
-2.500808	A U	-1.119255
-2.571568	A V	-1.245294
-2.577868	A W	-1.423355
-2.97945	A X	-0.4927526
-2.133373	A Y	-1.876451
-3.14426	A Z	-0.931954
-4.656144	A [
-4.027755	A ]	-0.1634612
-3.425695	A _	-0.8838581
-5.258204	A `
-3.22882	A a	-1.046934
-1.807032	A b	-1.13655
-1.322848	A c	-1.613023
-1.441896	A d	-1.498037
-2.898368	A e	-0.885852
-1.548425	A f	-2.339198
-1.699615	A g	-2.309911
-2.63599	A h	-1.084569
-2.065636	A i	-1.492617
-3.510016	A j	-0.8169936
-3.179023	A k	-0.9806979
-1.128192	A l	-1.578543
-1.44683	A m	-1.309819
-0.9878044	A n	-1.692261
-4.002931	A o	-0.2608725
-1.484637	A p	-2.035036
-3.360577	A q	-0.4715545
-1.247522	A r	-1.571292
-1.226351	A s	-1.084598
-1.591499	A t	-1.39903
-1.45216	A u	-2.306892
-2.139608	A v	-0.3413084
-2.181199	A w	-1.460079
-3.472874	A x	-1.017292
-2.97945	A y	-0.4286613
-3.147614	A z	-0.3087441
-4.957174	A }	-0.5459561
-5.258204	A ~
-4.187127	B !	-0.241769
-3.731869	B "	-0.8203329
-4.311652	B #	-0.2436018
-4.311652	B %	-0.1459531
-3.23977	B &	-0.9884846
-2.997785	B '	-0.5400843
-3.042139	B (	-1.240873
-2.3652	B )	-0.2733235
-4.408562	B *	-0.05357826
-3.931441	B +	-0.2081749
-2.475328	B ,	-0.1100677
-2.880288	B -	-0.596305
-2.042139	B .	-0.9482052
-3.02385	B /	-0.5949234
-3.479143	B 0	-0.1422417
-3.159364	B 1	-0.5175564
-2.961404	B 2	-0.2658954
-3.232471	B 3	-0.4395649
-3.303052	B 4	-0.3637717
-3.397838	B 5	-0.2346805
-3.505472	B 6	-0.2158363
-3.612682	B 7	-0.06145391
-3.709592	B 8	-0.1674727
-3.377154	B 9	-0.410751
-3.002022	B :	-0.8384206
-3.806502	B ;	0.1007591
-1.997363	B </s>
-1.571605	B <w>	-0.2396581
-4.165524	B =	-0.4425834
-3.969229	B >	0.2437918
-4.107532	B ?	0.1540783
-4.408562	B @	-0.3833903
-1.908532	B A	-1.547991
-1.713081	B B	-2.010579
-1.744155	B C	-1.545254
-2.425161	B D	-1.26214
-1.865115	B E	-1.678407
-3.159364	B F	-0.7329006
-2.576053	B G	-1.226059
-3.107532	B H	-0.784197
-2.067128	B I	-1.556211
-2.825931	B J	-1.025858
-3.430839	B K	-0.4657608
-2.088416	B L	-1.535547
-2.513693	B M	-1.174654
-2.067623	B N	-1.59387
-2.137883	B O	-1.551668
-2.185196	B P	-1.540168
-3.479143	B Q	-0.6498632
-2.073104	B R	-1.745425
-1.94804	B S	-1.593441
-2.409649	B T	-1.325146
-2.129809	B U	-1.890344
-3.294619	B V	-0.8114768
-2.817497	B W	-0.994269
-3.896679	B X	-0.1722434
-2.378165	B Y	-1.561582
-3.75535	B Z	-0.3676004
-4.709592	B [
-5.010622	B \
-3.35741	B ]	-0.5991362
-3.969229	B _	-0.2741852
-0.8819968	B a	-1.098593
-5.010622	B b
-3.780173	B c	-0.4148587
-4.05638	B d	-0.07114222
-0.9587368	B e	-1.292879
-4.311652	B f	-0.2623072
-4.311652	B g	-0.1165874
-3.102137	B h	-1.026768
-1.200591	B i	-0.5855694
-3.612682	B j	-0.3402015
-4.311652	B k	-0.1367762
-1.323986	B l	-2.437349
-4.408562	B m
-3.563464	B n	-0.7361391
-1.019573	B o	-1.058595
-4.311652	B p	-0.3778068
-4.311652	B q	-1.646412
-0.7606416	B r	-2.650234
-2.509563	B s	-1.3216
-2.993589	B t	-1.727608
-0.8892593	B u	-2.092745
-4.311652	B v	-0.3305058
-3.709592	B w	-0.3649601
-4.709592	B x
-1.600014	B y	-1.311135
-4.408562	B z
-5.010622	B }
-4.64385	C !	0.2970143
-3.967156	C "	-0.5065784
-3.04179	C #	-1.129432
-4.54694	C %	-0.06496018
-4.069818	C &	-0.5935435
-2.570132	C '	-1.540666
-3.666126	C (	-0.7132981
-2.293602	C )	-0.2366619
-4.64385	C *	-0.05357826
-3.058389	C +	-1.200374
-2.291667	C ,	-0.9278396
-2.684808	C -	-0.7004391
-1.978503	C .	-0.9961143
-2.978738	C /	-0.5776617
-3.967156	C 0	-0.264908
-2.638455	C 1	-0.4287497
-2.985838	C 2	0.00524199
-3.521634	C 3	-0.1344281
-3.34282	C 4	-0.1767372
-3.53834	C 5	-0.1928313
-3.754548	C 6	-0.1040062
-3.884182	C 7	-0.2675995
-4.069818	C 8	-0.08598857
-3.419835	C 9	-0.7500576
-2.988231	C :	-1.007627
-3.513516	C ;	-0.1948138
-4.64385	C <	-0.1921649
-2.002624	C </s>
-1.337908	C <w>	-0.2403827
-4.131967	C =	-0.3407992
-5.24591	C >
-4.204517	C ?	-0.4814147
-4.94488	C @
-1.68326	C A	-2.077903
-2.281179	C B	-1.630219
-2.20968	C C	-1.550107
-2.103833	C D	-1.770231
-1.742937	C E	-1.943696
-2.925763	C F	-1.079602
-2.911456	C G	-1.111088
-1.811341	C H	-1.897218
-1.906458	C I	-2.074676
-3.497722	C J	-0.7142268
-2.292634	C K	-1.599076
-2.184834	C L	-1.491855
-2.41725	C M	-1.446738
-2.783512	C N	-1.075628
-1.657974	C O	-2.5512
-2.048905	C P	-1.768699
-3.830936	C Q	-0.5994753
-2.17366	C R	-1.510483
-2.169269	C S	-1.679254
-1.852159	C T	-2.201872
-1.256282	C U	-2.562588
-2.809747	C V	-0.985812
-3.29652	C W	-0.7338
-3.923691	C X	-0.09182784
-2.83261	C Y	-1.188877
-3.830936	C Z	-0.3814163
-4.34282	C [	-0.8227358
-5.24591	C \
-3.94488	C ]	-0.1761507
-3.432997	C _	-0.670198
-5.24591	C `
-0.9298975	C a	-1.256807
-4.94488	C b
-4.400812	C c	-0.1860016
-3.798752	C d	-0.0329937
-1.437969	C e	-1.694427
-3.727396	C f	-1.188579
-4.768788	C g
-0.922472	C h	-1.830584
-1.708973	C i	-0.9086335
-4.291667	C k	-0.1898928
-1.331937	C l	-2.582348
-3.407061	C m	-1.141279
-4.422415	C n	-0.09463625
-0.5647952	C o	-1.056032
-4.291667	C p	-0.5910323
-1.435812	C r	-2.222328
-2.689607	C s	-1.155628
-3.53834	C t	-0.7454694
-1.568029	C u	-1.6141
-4.94488	C v
-3.783512	C w	-0.907358
-4.94488	C x
-2.398337	C y	-1.507768
-2.905466	C z	-1.328974
-5.24591	C |
-5.24591	C }
-3.453358	D !	-0.2589022
-3.550268	D "	-0.8395686
-3.742153	D %	-1.173337
-3.918244	D &	-0.4868304
-2.564456	D '	-0.7742797
-3.015154	D (	-0.5510801
-2.369037	D )	-0.4013546
-3.550268	D *	-0.7328237
-4.696396	D +
-2.152949	D ,	-0.4710828
-2.256274	D -	-0.8163194
-1.845137	D .	-1.027344
-2.774709	D /	-0.7673519
-3.128194	D 0	-0.0246613
-2.732608	D 1	-0.2314575
-2.980392	D 2	-0.1982166
-3.550268	D 3	-0.212543
-3.582452	D 4	-0.02706829
-3.566062	D 5	-0.1488655
-3.766977	D 6	-0.08826062
-3.334668	D 7	-0.3351199
-3.506064	D 8	-0.2714863
-3.617214	D 9	-0.1801868
-2.530558	D :	-1.10747
-3.675206	D ;	0.3297037
-2.000039	D </s>
-1.061163	D <w>	-0.05937815
-2.217108	D =	-1.503512
-4.298456	D >	-0.02940261
-3.582452	D ?	-0.8713858
-4.997426	D @
-1.566545	D A	-1.905163
-2.63759	D B	-0.988153
-2.275615	D C	-1.304303
-2.264228	D D	-1.323103
-1.562219	D E	-1.840277
-1.926649	D F	-1.774141
-2.667012	D G	-1.074386
-2.749452	D H	-0.9260809
-1.706946	D I	-1.823755
-2.714124	D J	-1.275642
-3.406361	D K	-0.4860295
-2.3932	D L	-1.131103
-2.275615	D M	-1.369258
-2.050973	D N	-1.445291
-1.864206	D O	-1.764474
-2.228048	D P	-1.274763
-3.696396	D Q	-0.3781799
-2.136489	D R	-1.583817
-1.833073	D S	-1.776703
-2.333725	D T	-1.281108
-2.041738	D U	-1.294985
-2.025686	D V	-1.87492
-2.948208	D W	-0.9742126
-3.453358	D X	-0.5203301
-2.836058	D Y	-0.9400885
-3.617214	D Z	-1.027453
-4.696396	D [
-3.956033	D ]	0.1599378
-2.744573	D _	-0.5871754
-4.997426	D `
-0.897469	D a	-1.239549
-4.094336	D b	-0.191669
-4.696396	D c
-3.289855	D d	-0.5298075
-0.6966781	D e	-1.481631
-2.997426	D f	-1.387716
-4.997426	D g
-2.900516	D h	-0.8590097
-0.9089707	D i	-0.5136809
-3.191246	D j	-1.007444
-4.395366	D k	-0.1921247
-3.793306	D l	-0.396814
-3.363957	D m	-1.190139
-4.173931	D n	-0.3211224
-1.06485	D o	-1.849852
-4.298456	D p
-1.241856	D r	-2.170986
-2.381476	D s	-1.175388
-3.417642	D t	-0.5600358
-1.33222	D u	-0.9609175
-3.821334	D v	-0.856219
-2.734975	D w	-1.297843
-3.997426	D x	-0.2159383
-2.338461	D y	-2.095623
-3.851298	D z	-0.4706767
-3.346848	E !	-0.5913414
-3.476808	E "	-1.352892
-5.110277	E $
-4.265179	E %	-0.4383049
-3.964149	E &	-0.2451007
-2.742921	E '	-1.036658
-3.339424	E (	-0.3026667
-2.4891	E )	-0.4983265
-3.767854	E *	-0.3726186
-4.031095	E +	-0.4658889
-2.226048	E ,	-0.4757396
-2.172759	E -	-0.8673946
-2.01861	E .	-0.8277357
-2.903451	E /	-0.700052
-3.964149	E 0	-0.07764477
-2.703736	E 1	-0.3950313
-3.165794	E 2	-0.3688415
-3.519212	E 3	-0.3649821
-3.542075	E 4	0.01337171
-3.633155	E 5	-0.3390281
-3.519212	E 6	-0.2085722
-3.647878	E 7	-0.129831
-3.618915	E 8	-0.2498872
-3.906157	E 9	-0.1329874
-2.252341	E :	-1.647685
-3.180858	E ;	-0.3963977
-2.01441	E </s>
-1.017556	E <w>	0.2159092
-3.566208	E =	-0.5471442
-5.110277	E >
-3.618915	E ?	-0.3293238
-5.110277	E @
-1.654062	E A	-2.168225
-2.408709	E B	-1.341721
-1.608806	E C	-2.110901
-1.636644	E D	-2.143759
-1.888341	E E	-1.614991
-2.180347	E F	-1.587398
-2.372289	E G	-1.491871
-2.87728	E H	-0.9134348
-2.322816	E I	-1.3764
-3.748549	E J	-0.5291881
-3.354402	E K	-0.5680526
-1.773817	E L	-2.049138
-1.629264	E M	-2.104841
-0.9627548	E N	-2.650441
-2.520327	E O	-1.255332
-2.051092	E P	-1.729605
-2.677307	E Q	-1.251442
-1.318516	E R	-2.369186
-1.346399	E S	-2.626905
-1.770031	E T	-2.065248
-2.007843	E U	-1.581104
-2.120382	E V	-1.943089
-2.133927	E W	-1.556325
-2.276492	E X	-1.10472
-2.640455	E Y	-1.102966
-3.354402	E Z	-0.5727898
-4.809247	E [
-4.633155	E \	-0.2725066
-3.618915	E ]	0.1574646
-3.068884	E _	-0.9609879
-5.110277	E `
-1.362166	E a	-2.1667
-2.829243	E b	-0.9160665
-2.008873	E c	-2.166552
-1.218572	E d	-1.81673
-3.354402	E e	-0.5042021
-2.41743	E f	-1.53326
-2.33285	E g	-0.8868803
-3.712337	E h	-0.50032
-2.283554	E i	-0.943768
-4.411306	E j	0.01459992
-3.695303	E k	-0.4071988
-1.577649	E l	-1.007976
-1.570949	E m	-1.424854
-1.020654	E n	-2.266819
-3.879827	E o	-0.2881551
-2.390945	E p	-1.920706
-2.306137	E q	-1.721355
-2.024629	E r	-0.5392865
-1.895433	E s	-1.419184
-2.239873	E t	-0.7798877
-1.412263	E u	-2.091835
-1.490557	E v	-1.263509
-2.993005	E w	-0.8666004
-1.297764	E x	-1.580696
-2.633155	E y	-1.507397
-2.957988	E z	-1.446881
-4.809247	E }	-0.5459561
-3.894333	F !	-0.5100341
-4.070838	F "	-0.5062836
-4.894333	F #
-4.894333	F $
-4.593303	F %
-3.63906	F &	-0.5282504
-2.964914	F '	-0.8727773
-4.417212	F (
-2.453424	F )	-0.3275506
-4.292273	F *	-0.2571862
-4.593303	F +
-2.313408	F ,	-0.2748015
-2.921205	F -	-0.3605577
-2.052973	F .	-0.8196721
-3.314549	F /	-0.2546614
-3.260864	F 0	-0.5293062
-2.453424	F 1	-1.088101
-3.33803	F 2	0.1789563
-3.281549	F 3	-0.2388466
-3.479359	F 4	-0.08706099
-3.514122	F 5	-0.1294058
-3.24112	F 6	-0.3514068
-3.718241	F 7	-0.1662728
-3.123481	F 8	-0.3166755
-3.170057	F 9	-0.3784252
-2.773759	F :	-1.552454
-3.281549	F ;	-0.2815757
-2.004471	F </s>
-1.233752	F <w>	-0.8157152
-4.049235	F =	-0.4881569
-4.894333	F >
-4.070838	F ?	0.2228255
-4.292273	F @	-0.3868509
-1.78307	F A	-1.775795
-2.72998	F B	-0.9300732
-2.170877	F C	-1.49394
-2.663884	F D	-0.9521536
-1.78543	F E	-1.660326
-1.78408	F F	-1.75656
-3.303268	F G	-0.4779598
-2.709641	F H	-0.9945579
-1.8295	F I	-1.711349
-3.94009	F J	-0.1851314
-3.195363	F K	-0.4871454
-2.342883	F L	-1.462476
-2.582579	F M	-1.314827
-3.24112	F N	-0.7210541
-1.584277	F O	-2.127396
-2.546028	F P	-0.9903288
-3.85294	F Q	-0.3466565
-1.960845	F R	-1.850492
-2.22316	F S	-1.07889
-2.068907	F T	-1.012972
-2.456582	F U	-1.18462
-3.389183	F V	-0.7025164
-3.303268	F W	-0.5604894
-2.815151	F X	-0.9027721
-2.944943	F Y	-0.9907496
-3.991243	F Z	-0.4128371
-4.049235	F ]	0.1062224
-2.959834	F _	-1.011767
-1.030653	F a	-1.482277
-4.417212	F b	-0.2358902
-4.292273	F c
-3.85294	F d	-0.5006753
-1.104893	F e	-1.746233
-3.25088	F f	-0.8666991
-4.417212	F g
-3.496393	F h	-0.7462242
-0.8971648	F i	-1.975142
-3.894333	F j	-0.4817829
-4.894333	F k
-1.403251	F l	-2.66191
-3.55191	F m	-0.5561677
-4.195363	F n	-1.646437
-0.6927717	F o	-2.542497
-4.070838	F p	-0.288543
-4.894333	F q
-0.8371612	F r	-2.449138
-2.954813	F s	-1.100577
-4.049235	F t	-0.2658454
-1.207965	F u	-2.04994
-4.593303	F v
-3.663884	F w	-0.8135817
-4.593303	F x
-3.204137	F y	-0.2142372
-4.894333	F z
-3.543624	G !	-0.08188224
-3.591928	G "	-0.7527457
-4.822377	G #
-4.345256	G &
-3.037047	G '	-1.114472
-3.919287	G (	-0.184244
-2.460649	G )	-0.7365777
-4.220317	G *
-3.998882	G +	-0.7275841
-2.458765	G ,	0.08879054
-2.754191	G -	-0.6247268
-1.859535	G .	-0.9682711
-3.188909	G /	-0.5252645
-3.977279	G 0	-0.01842587
-3.029986	G 1	-0.5321639
-3.044226	G 2	-0.2758619
-3.169165	G 3	-0.6107769
-3.199128	G 4	-0.6189115
-4.220317	G 5	-0.1416506
-4.123407	G 6	-0.1295621
-3.500158	G 7	-0.2601849
-2.673158	G 8	-0.693272
-3.567105	G 9	-0.2303416
-2.941564	G :	-1.318371
-3.743196	G ;	0.5530568
-2.003492	G </s>
-1.30439	G <w>	-0.6743916
-4.123407	G =
-4.123407	G >	-0.2817768
-3.618257	G ?	-0.8484843
-4.521348	G @	-0.5481707
-1.943856	G A	-1.653137
-1.860956	G B	-1.511544
-2.434988	G C	-1.019109
-2.780985	G D	-1.031511
-1.643976	G E	-1.626417
-2.853894	G F	-0.7798667
-2.784951	G G	-0.8505067
-2.131296	G H	-1.256342
-2.002176	G I	-1.43253
-3.743196	G J	-0.3693613
-3.708434	G K	-0.3788033
-2.273374	G L	-1.375198
-1.641678	G M	-1.806278
-2.298631	G N	-1.232213
-1.918745	G O	-1.58903
-1.960246	G P	-1.699655
-3.822377	G Q	-0.6517822
-1.8374	G R	-1.644539
-2.002833	G S	-1.412505
-2.479955	G T	-1.138347
-2.226881	G U	-1.089838
-3.375219	G V	-0.4743139
-3.044226	G W	-0.6454257
-3.977279	G X	-0.2217866
-2.607533	G Y	-1.20088
-4.220317	G Z	-0.3535928
-4.822377	G [
-3.708434	G ]	-0.5196656
-4.521348	G ^
-3.066503	G _	-0.7165912
-1.025456	G a	-1.833223
-3.209594	G b	-0.7676307
-3.868135	G c	-0.8976439
-3.424437	G d	-0.4797561
-0.8405587	G e	-2.626513
-4.521348	G f
-4.822377	G g
-2.158676	G h	-1.955647
-1.42046	G i	-0.6289883
-4.123407	G j	0.01459992
-1.362081	G l	-2.696422
-3.442166	G m	-0.5346268
-3.106374	G n	-0.9089216
-0.7607364	G o	-0.6738191
-3.868135	G p	-0.312089
-4.822377	G q
-0.7745575	G r	-3.158547
-2.965045	G s	-0.8823577
-3.407404	G t	-0.6680876
-1.228538	G u	-1.112271
-4.345256	G v
-2.541344	G w	-1.551324
-4.822377	G x
-2.404076	G y	-1.431275
-4.822377	G z
-4.521348	G }	0.1967228
-3.679383	H !	-0.4037483
-4.235685	H "	-0.3842284
-4.633625	H %	-0.4669511
-3.633625	H &	-0.7262332
-3.416141	H '	-0.3994917
-4.633625	H (
-2.752811	H )	-0.6083739
-4.934655	H *
-4.633625	H +
-2.646853	H ,	-0.07536054
-3.015577	H -	-0.2613611
-2.044234	H .	-0.9181529
-3.194292	H /	-0.4707787
-3.893262	H 0	-0.2917269
-3.053841	H 1	-0.08074546
-3.186467	H 2	-0.3140033
-3.788527	H 3	0.03133016
-3.934655	H 4	-0.1508388
-3.612436	H 5	-0.2137813
-3.788527	H 6	-0.1026811
-3.980412	H 7	-0.1967527
-4.332595	H 8	-0.08659411
-4.235685	H 9	-0.223884
-3.202261	H :	-0.5909102
-3.820712	H ;	0.2172648
-2.01193	H </s>
-1.503291	H <w>	-0.4550701
-4.332595	H =
-4.934655	H >
-3.980412	H ?	-0.3942646
-1.760014	H A	-1.864796
-3.235685	H B	-0.5789929
-2.358314	H C	-1.299639
-2.304227	H D	-1.281722
-1.284056	H E	-2.105122
-2.804321	H F	-1.142398
-3.005236	H G	-0.8769504
-3.301187	H H	-0.5402196
-1.699885	H I	-1.992062
-3.679383	H J	-0.5129147
-3.554444	H K	-0.3218592
-2.706768	H L	-1.134515
-2.067188	H M	-1.687984
-2.598195	H N	-1.239072
-1.684479	H O	-1.902009
-2.295168	H P	-1.572857
-2.995136	H Q	-1.09011
-2.02403	H R	-1.525505
-1.585766	H S	-2.183843
-2.067777	H T	-1.708751
-2.413517	H U	-1.245756
-3.17878	H V	-0.8020859
-2.830851	H W	-1.184936
-3.679383	H X	-0.6988347
-2.658193	H Y	-1.608446
-3.980412	H Z	-0.4765477
-4.457534	H [	-0.2793278
-4.633625	H ]
-3.472257	H _	-1.25656
-0.8297583	H a	-0.6854985
-4.633625	H c
-4.332595	H d
-0.6496831	H e	-1.807961
-4.235685	H f	-0.2657383
-3.855474	H g	-0.1400318
-4.332595	H h
-1.010376	H i	-1.76647
-4.332595	H j	-0.1923168
-4.934655	H k
-3.788527	H l	-0.3562055
-3.071332	H m	-1.251785
-4.332595	H n	-0.1605264
-0.6773124	H o	-0.7827067
-4.457534	H p
-4.633625	H q
-3.519682	H r	-0.226564
-3.416141	H s	-0.4607437
-4.633625	H t	-0.5410041
-1.270954	H u	-1.05844
-4.934655	H v
-3.980412	H w	-0.4474163
-4.11116	H x	-0.1978661
-2.151466	H y	-1.944446
-2.870197	H z	-1.370006
-4.246058	I !	-0.1177618
-3.731148	I "	-0.4873659
-4.463955	I &	-0.4197414
-1.492753	I '	-1.878428
-3.945027	I (	-0.3099238
-2.599921	I )	-0.2377619
-4.28745	I *	-0.3992882
-4.38436	I +	-0.1753667
-2.354976	I ,	-0.2773428
-2.840292	I -	-0.4827391
-2.286149	I .	-0.7379705
-3.080624	I /	-0.7277096
-4.38436	I 0	-0.1645356
-4.141322	I 1	-0.1251447
-3.98642	I 2	-0.1453613
-3.563174	I 3	-1.122111
-4.810329	I 4
-3.555056	I 5	-0.9029338
-3.88951	I 6	-0.3996741
-4.333208	I 7	-0.2291792
-4.810329	I 8	-0.2527167
-4.810329	I 9
-3.088793	I :	-1.002342
-3.634238	I ;	-0.3315498
-5.28745	I <
-2.006417	I </s>
-0.6087315	I <w>	-1.032422
-4.58848	I =	-0.1148122
-4.810329	I >
-3.674666	I ?	-0.3209966
-2.126382	I A	-1.932764
-2.57312	I B	-1.438613
-1.712725	I C	-1.820157
-1.879719	I D	-1.9658
-2.033144	I E	-1.645638
-2.49999	I F	-1.535689
-2.303824	I G	-1.935756
-3.062141	I H	-1.002844
-1.837509	I I	-1.764317
-4.810329	I J	-0.2824909
-3.309726	I K	-0.7213756
-2.08578	I L	-1.989389
-2.203231	I M	-1.584364
-1.377627	I N	-2.382466
-1.748374	I O	-2.422497
-2.087421	I P	-1.888021
-3.509299	I Q	-0.7362307
-2.092381	I R	-1.96542
-1.523125	I S	-2.284862
-1.724919	I T	-2.436716
-3.19054	I U	-1.116019
-2.148201	I V	-1.598132
-3.262144	I W	-0.9568049
-2.937202	I X	-0.9128637
-3.28745	I Y	-1.245854
-3.173507	I Z	-1.400652
-4.442352	I ]	0.2149766
-4.208269	I _
-4.442352	I `	-0.4691443
-2.378429	I a	-1.698982
-2.943058	I b	-0.9427916
-2.776905	I c	-1.170991
-2.354976	I d	-0.870974
-4.173507	I e	-0.1772338
-1.363067	I f	-2.476918
-3.051922	I g	-1.114633
-3.907239	I h	-0.7767156
-4.246058	I i	-0.4547344
-3.907239	I j	-0.6160502
-3.98642	I k	-0.4251026
-2.490876	I l	-0.7491579
-1.85964	I m	-1.588505
-0.6846958	I n	-1.034753
-3.099929	I o	-0.7254117
-3.719248	I p	-0.6541637
-4.442352	I q	-0.3438353
-1.352497	I r	-2.542953
-1.439939	I s	-1.221367
-0.980875	I t	-2.17009
-4.463955	I u	-0.3276243
-2.786391	I v	-0.3018621
-4.28745	I w	-0.1974708
-3.98642	I x	-0.5809444
-3.98642	I y	-0.6656892
-3.707667	I z	-0.4044165
-4.629063	J !
-4.328033	J &	-0.5486899
-3.197699	J '	-0.6675916
-4.629063	J (
-3.084995	J )	-0.2721587
-3.58767	J +	-1.025224
-2.501958	J ,	-0.779718
-3.267335	J -	-0.34843
-1.406607	J .	-1.288553
-3.725973	J /
-3.725973	J 0	-0.2417521
-3.137701	J 1	-0.2737315
-3.097584	J 2	-0.6567868
-3.725973	J 3	-0.2007367
-3.452972	J 4	-0.1396707
-3.805568	J 6
-3.783965	J 7	-0.1916847
-3.424943	J 8	-0.2630588
-3.725973	J 9	-0.06177986
-3.123913	J :	-0.9503944
-4.027003	J ;	0.6102873
-2.005814	J </s>
-1.705301	J <w>	-0.3912032
-3.930093	J =	-0.2510635
-4.629063	J @
-2.08006	J A	-1.191439
-3.049279	J B	-0.623272
-2.334597	J C	-1.239431
-3.037998	J D	-0.6006164
-2.16967	J E	-1.069036
-2.579845	J F	-1.102686
-3.060861	J G	-0.5477936
-3.214089	J H	-0.6171964
-1.959746	J I	-1.480264
-3.231123	J J	-0.5993733
-3.629063	J K	-0.2978183
-3.549882	J L	-0.4837169
-2.748249	J M	-0.530861
-2.759831	J N	-0.8195956
-2.250665	J O	-1.328495
-2.77173	J P	-0.6254384
-3.725973	J Q	-0.2555927
-2.461746	J R	-1.067524
-2.553516	J S	-0.9615369
-3.248852	J T	-0.4958514
-2.210762	J U	-0.870708
-3.452972	J V	-0.442875
-3.424943	J W	-0.2822177
-3.805568	J X	-0.2634225
-4.027003	J Y	-0.1066388
-3.629063	J Z	-0.1036112
-4.027003	J [	-0.3884628
-4.328033	J ]	-0.5445833
-4.328033	J ^	-0.1300568
-3.930093	J _	-1.643616
-0.6566285	J a	-0.8749568
-4.027003	J b	-0.3965434
-3.930093	J c	-0.3200712
-4.151942	J d
-0.9324444	J e	-2.148799
-4.629063	J f
-4.629063	J g
-3.629063	J h	-0.6026992
-1.704784	J i	-1.748195
-4.629063	J j
-4.629063	J l
-4.027003	J m	-0.1138914
-3.231123	J n	-1.175974
-0.6181695	J o	-0.6386316
-4.629063	J p
-2.731436	J r	-1.122821
-3.097584	J s	-0.3399884
-0.5918755	J u	-1.561924
-4.328033	J v
-4.629063	J w
-4.629063	J x
-3.725973	J y	-0.6719954
-4.328033	J z
-3.321295	K !	-0.120959
-3.020265	K "	-0.3069537
-3.218632	K #	-0.4953848
-4.497386	K %
-3.895326	K &	-0.1868614
-1.9041	K '	-1.394057
-3.594296	K (	-0.1343305
-1.959567	K )	-0.7323318
-3.594296	K +	-0.1986547
-1.664239	K ,	-0.4496022
-2.198533	K -	-0.5525913
-1.368018	K .	-1.001089
-3.066022	K /	-0.3173672
-3.798416	K 0	-0.289883
-2.80719	K 1	0.02806395
-3.266937	K 2	-0.3840259
-4.497386	K 3
-3.497386	K 4	-0.4041871
-3.135658	K 5	-0.431679
-3.594296	K 6	-0.2333207
-3.497386	K 7	-0.309619
-3.543143	K 8	-0.2306869
-2.929184	K 9	-0.8793428
-2.390176	K :	-0.859941
-3.321295	K ;	0.4561468
-2.003231	K </s>
-0.6425335	K <w>	-0.1781044
-4.196356	K =
-3.798416	K >	0.1469738
-2.853933	K ?	-0.3586697
-2.390176	K A	-0.7349923
-2.017379	K B	-1.382826
-2.691206	K C	-0.5720773
-2.965907	K D	-0.4465597
-1.724331	K E	-1.390196
-3.154963	K F	-0.430288
-2.757023	K G	-0.660942
-2.741511	K H	-1.000922
-1.749198	K I	-1.46439
-3.351258	K J	-0.3271062
-3.242113	K K	-0.1690466
-2.684473	K L	-0.7455759
-2.704994	K M	-0.7327575
-2.557867	K N	-0.966591
-2.269499	K O	-0.8862396
-2.298729	K P	-1.128879
-3.895326	K Q	-0.1666369
-2.953318	K R	-0.7205139
-1.926843	K S	-1.217798
-2.677842	K T	-0.1785538
-3.050228	K U	-0.2712919
-3.798416	K V	-0.1487483
-2.390176	K W	-1.129325
-4.196356	K X	-0.5244383
-2.634063	K Y	-0.8908094
-4.497386	K Z
-3.895326	K [	-0.7185196
-3.218632	K ]	-0.6208744
-4.497386	K ^
-3.034988	K _	-0.6016945
-1.035587	K a	-1.710388
-2.345098	K b	-1.439286
-4.020265	K c	-0.2541159
-3.497386	K d	-0.332834
-0.8018166	K e	-1.655171
-3.895326	K f	-0.1721122
-3.154963	K g	-0.4600089
-1.977558	K h	-1.213438
-0.8850259	K i	-0.6115658
-3.383442	K j	-0.6514181
-3.798416	K k	-0.446729
-1.924514	K l	-1.753954
-3.154963	K m	-1.156293
-1.422204	K n	-2.493032
-1.285465	K o	-2.002594
-3.497386	K p	-0.2032762
-1.835573	K r	-1.612401
-3.020265	K s	-1.217751
-3.798416	K t	-0.02133849
-1.580406	K u	0.2618874
-3.895326	K v	0.2557341
-2.363847	K w	-1.873468
-2.200721	K y	-1.250334
-4.196356	K z
-3.933823	L !	0.06302243
-3.744767	L "	-0.7039677
-4.373156	L #	-0.511206
-4.975216	L $
-4.975216	L %
-3.674186	L &	-0.4825094
-2.724796	L '	-0.8822945
-3.632793	L (	-0.327808
-2.514318	L )	-0.1255637
-4.373156	L *
-2.265946	L ,	-0.2506316
-2.68296	L -	-0.543277
-1.995212	L .	-0.8111693
-2.763028	L /	-0.8049889
-3.771096	L 0	-0.370395
-3.094402	L 1	-0.6606429
-3.312458	L 2	-0.1901142
-3.418913	L 3	-0.1486771
-3.896034	L 4	-0.1133048
-3.470066	L 5	-0.3464332
-3.829088	L 6	-0.5768391
-4.072126	L 7	0.02507885
-4.498095	L 8
-3.975216	L 9	-0.1682751
-2.776559	L :	-1.13231
-3.443737	L ;	-0.2002708
-1.999325	L </s>
-0.8205788	L <w>	-0.1611972
-3.498095	L =	-0.6406193
-4.975216	L >
-3.613488	L ?	-0.3246287
-4.674186	L @	-0.548682
-1.644802	L A	-1.863096
-2.703374	L B	-0.9136167
-2.152394	L C	-1.41167
-2.10306	L D	-1.400396
-1.495065	L E	-1.883084
-2.470066	L F	-1.257377
-2.634772	L G	-1.333909
-2.962379	L H	-0.7862955
-1.587648	L I	-2.053169
-3.293975	L J	-0.9225842
-3.056138	L K	-0.9970825
-1.71324	L L	-1.802603
-2.64888	L M	-1.332627
-2.579016	L N	-1.138719
-1.717537	L O	-1.822191
-2.154358	L P	-1.463696
-4.674186	L Q
-2.475529	L R	-1.106084
-2.060344	L S	-1.599115
-2.087599	L T	-1.639457
-2.079241	L U	-1.32543
-2.98399	L V	-1.052894
-3.016174	L W	-0.8349249
-3.384151	L X	-0.5999711
-2.220867	L Y	-1.420055
-3.595005	L Z	-0.8078577
-4.373156	L [	-0.1897069
-4.975216	L \
-3.267646	L ]	-0.5012583
-2.966616	L _	-0.9612733
-0.8837247	L a	-1.222095
-4.498095	L c
-4.020973	L d	-0.1260201
-0.9283696	L e	-1.636726
-4.276246	L f	-0.1215753
-3.975216	L g	-0.321794
-3.613488	L h	-0.7956975
-0.8830919	L i	-0.6262269
-3.543852	L j	-1.290311
-4.151721	L k	-0.1085796
-2.246862	L l	-1.64771
-4.498095	L m
-3.632793	L n	-0.4181018
-0.7312357	L o	-1.383798
-4.975216	L p
-4.498095	L q
-2.992944	L s	-1.204292
-2.017608	L t	-2.194441
-1.651139	L u	-1.035278
-4.151721	L v	-0.1175855
-3.829088	L w	-0.246826
-4.373156	L x
-2.086475	L y	-1.888226
-4.975216	L z
-4.975216	L }
-3.957313	M !	-0.1468562
-3.925128	M "	-0.4586543
-5.071256	M %
-3.639892	M &	-1.18511
-2.950682	M '	-0.7847981
-3.957313	M (	-0.1610973
-2.519806	M )	-0.8214389
-4.469196	M *	-0.1912495
-4.469196	M +	-0.2154937
-2.482424	M ,	-0.3794513
-2.981351	M -	-0.5418061
-1.839022	M .	-1.281848
-3.278864	M /	-0.4294592
-3.992075	M 0	-0.08935837
-2.878131	M 1	-0.9771298
-3.066935	M 2	-0.3361346
-3.323068	M 3	-0.07385737
-3.323068	M 4	-0.2715641
-3.458472	M 5	-0.2753686
-3.232407	M 6	-0.4046869
-3.608858	M 7	-0.2593603
-3.691045	M 8	-0.3199812
-3.957313	M 9	-0.1885645
-3.157442	M :	-1.100499
-3.840807	M ;	0.0759356
-2.018562	M </s>
-1.2947	M <w>	-0.4249451
-4.168166	M =	-0.184685
-4.469196	M >
-3.925128	M ?	-0.5861501
-1.576962	M A	-2.147149
-2.214527	M B	-1.75949
-2.357765	M C	-1.378398
-2.663016	M D	-1.100019
-1.552742	M E	-1.865221
-2.823283	M F	-0.9303555
-2.964046	M G	-0.708038
-2.44389	M H	-1.472678
-1.730415	M I	-1.650272
-3.202024	M J	-0.9254978
-3.126773	M K	-0.7456484
-2.139798	M L	-1.569896
-2.297469	M M	-1.510369
-2.999374	M N	-0.9483733
-2.01741	M O	-1.638134
-1.774371	M P	-1.698892
-3.639892	M Q	-0.800939
-2.287352	M R	-1.083944
-1.878131	M S	-1.569127
-2.304843	M T	-1.430256
-2.13929	M U	-1.385569
-3.093532	M V	-0.8297691
-3.093532	M W	-0.9613705
-3.300404	M X	-0.6424588
-2.828218	M Y	-1.1592
-4.117013	M Z	-0.3754441
-4.469196	M [	-0.3884628
-4.770226	M \
-3.728833	M ]	0.02932727
-3.673316	M _	-0.519585
-4.770226	M `	-0.5427878
-0.5306762	M a	-1.184674
-3.006798	M b	-0.8206732
-1.795484	M c	-2.240108
-3.792502	M d	-0.481952
-1.032636	M e	-1.289733
-4.226158	M f	-0.4336042
-4.071256	M g	-0.2475114
-3.957313	M h	-0.3664441
-0.9699901	M i	-1.890143
-5.071256	M j
-3.179161	M k	-1.055284
-3.673316	M l	-0.5424449
-3.480191	M m	-0.7611033
-3.691045	M n	-0.4440531
-0.8978074	M o	-0.6239398
-3.566106	M p	-0.6379633
-1.542725	M r	-2.218591
-2.472465	M s	-1.345171
-3.315381	M t	-0.5419776
-1.31622	M u	-1.392952
-4.247761	M v	-0.4221918
-4.029863	M w	-0.0254515
-4.770226	M x
-1.687441	M y	-1.214905
-4.594135	M z
-3.922799	N !	-0.2386087
-3.659558	N "	-0.4709668
-4.39992	N %	-0.6389856
-4.178485	N &	-0.2667768
-2.683917	N '	-0.8867234
-3.39992	N (	-0.5336018
-2.843618	N )	-0.2098788
-4.524859	N *
-3.746708	N +	-0.432009
-2.224553	N ,	-0.2602268
-2.781872	N -	-0.4868411
-2.094569	N .	-0.6253296
-2.960588	N /	-0.5979581
-3.554822	N 0	-0.6540415
-3.015208	N 1	-0.6437438
-2.89477	N 2	-0.8229111
-3.121167	N 3	-0.6545328
-3.570616	N 4	-0.4990159
-3.524859	N 5	-0.4690095
-3.60404	N 6	-0.4440803
-3.679761	N 7	-0.3911068
-3.922799	N 8	-0.2995344
-4.047738	N 9	-0.2985774
-2.381844	N :	-1.385738
-3.746708	N ;	0.3769656
-2.005469	N </s>
-1.118205	N <w>	-0.6776104
-3.470501	N =	-0.6158887
-3.640252	N >	-1.051637
-3.445678	N ?	-1.008224
-4.39992	N @	-0.5330769
-1.458657	N A	-2.233037
-2.651732	N B	-1.323775
-1.755236	N C	-1.829512
-1.4531	N D	-2.288278
-1.456302	N E	-2.036303
-2.050157	N F	-1.923593
-1.520251	N G	-2.187445
-1.839117	N H	-2.031528
-1.634624	N I	-2.062259
-3.29441	N J	-0.9848984
-2.536597	N K	-1.036024
-2.222384	N L	-1.678039
-2.734808	N M	-1.048867
-2.125185	N N	-1.527612
-1.737399	N O	-1.903765
-2.319835	N P	-1.381568
-3.09889	N Q	-1.147185
-2.766452	N R	-0.9445562
-1.641955	N S	-2.089643
-0.8822955	N T	-2.696968
-2.246105	N U	-1.185207
-2.573845	N V	-1.193659
-2.547135	N W	-1.074888
-3.640252	N X	-0.4039825
-2.465422	N Y	-1.171018
-2.70095	N Z	-1.224754
-4.047738	N [	-0.3239996
-3.104353	N ]	-1.209568
-3.554822	N _	-0.3712394
-1.131225	N a	-0.9078016
-5.00198	N b
-3.70095	N c	-0.682638
-3.825889	N d	-0.2756624
-0.8638355	N e	-1.793606
-3.483466	N g	-0.5266492
-3.855852	N h	-0.5196148
-1.482809	N i	-0.1360924
-4.178485	N j	-0.2801163
-4.524859	N k
-4.70095	N l
-4.524859	N m
-5.00198	N n
-0.6908199	N o	-2.117982
-3.960588	N p	-0.4553639
-4.39992	N q
-3.587007	N r	-0.8542802
-3.445678	N s	-0.2696446
-3.771531	N t	-0.3546843
-1.833777	N u	-0.8255064
-3.960588	N v	-0.6262951
-4.70095	N w
-4.70095	N x
-3.09889	N y	-0.8696629
-4.39992	N z
-4.70095	N {	-0.5429602
-3.521661	O !	-0.1440685
-3.600842	O "	-0.5288548
-3.901872	O &	-0.9987809
-1.968385	O '	-1.510128
-4.078377	O (	-0.2754805
-2.478626	O )	-0.2430633
-4.600842	O *	-0.5482792
-4.901872	O +
-2.52896	O ,	-0.2750921
-2.906237	O -	-0.4770957
-2.212564	O .	-0.6418892
-3.056774	O /	-0.5374506
-4.600842	O 0
-3.34557	O 1	-0.5315057
-2.714352	O 2	-0.8969036
-4.078377	O 3
-3.486899	O 4	-0.6807425
-3.998782	O 5	-0.1415088
-4.056774	O 6	-0.1795114
-4.299812	O 7
-4.600842	O 8
-4.901872	O 9
-3.169478	O :	-0.5622143
-3.211676	O ;	-0.3589879
-1.99824	O </s>
-1.319809	O <w>	0.1799748
-4.056774	O =	-1.012495
-3.755744	O ?	-0.5861501
-1.970414	O A	-1.675499
-2.217027	O B	-1.256722
-1.789267	O C	-1.758648
-1.929669	O D	-1.584464
-2.361543	O E	-1.082623
-1.559252	O F	-2.184049
-2.199442	O G	-1.577919
-2.722895	O H	-0.5484931
-2.019348	O I	-1.66884
-3.069363	O J	-1.489829
-2.065548	O K	-1.563376
-1.633528	O L	-2.003159
-1.6466	O M	-1.730817
-1.059825	O N	-2.284909
-1.80531	O O	-1.720964
-1.716614	O P	-1.937107
-3.755744	O Q	-0.5361654
-1.241671	O R	-2.218519
-1.747144	O S	-1.525322
-1.724624	O T	-1.816251
-1.582766	O U	-2.034091
-2.226094	O V	-1.613178
-1.95739	O W	-1.749947
-2.826325	O X	-0.747763
-2.784601	O Y	-0.5379402
-3.521661	O Z	-0.5002776
-3.94763	O ]	0.03215408
-3.145997	O _	-0.924616
-4.424751	O `	-0.6907328
-2.424751	O a	-1.768875
-1.867244	O b	-1.764503
-1.399855	O c	-2.139667
-2.651452	O d	-0.6678683
-3.439474	O e	-0.3855654
-1.159933	O f	-2.255112
-2.852654	O g	-0.9780982
-1.997698	O h	-1.936224
-2.491939	O i	-1.280572
-3.623119	O j	-0.6629836
-2.649019	O k	-1.091548
-1.67553	O l	-0.8964846
-2.254489	O m	-0.8943014
-0.9595665	O n	-1.44438
-3.026811	O o	-0.8286468
-1.520036	O p	-1.844319
-1.219818	O r	-1.237451
-1.794323	O s	-0.4337529
-1.626561	O t	-1.913383
-1.370266	O u	-1.924472
-1.749278	O v	-1.298467
-2.13102	O w	-1.411234
-1.84193	O x	-1.746505
-2.933389	O y	-0.8387094
-3.056774	O z	-0.2827836
-4.901872	O }
-4.135592	P !	0.1242712
-3.859385	P "	-0.4479774
-4.487774	P $	-0.6887525
-4.788805	P %
-3.691895	P &	-1.017788
-2.724346	P '	-1.060235
-3.913743	P (	-0.1673813
-2.426134	P )	-0.008807302
-4.048442	P *	-0.4343288
-4.244737	P +	-0.2658034
-2.288431	P ,	-0.1045461
-2.905143	P -	-0.3334027
-1.969261	P .	-0.8054355
-2.869726	P /	-0.8421614
-3.466585	P 0	-0.2053491
-3.060451	P 1	-0.7331583
-3.326406	P 2	-0.009798348
-2.620013	P 3	-0.7467924
-3.357441	P 4	-0.4813653
-3.767615	P 5	0.03670342
-3.427077	P 6	-0.5424079
-3.709623	P 7	-0.5133201
-4.010653	P 8	-0.4774793
-3.767615	P 9	-0.3584314
-2.979245	P :	-1.24144
-3.885715	P ;	0.1007591
-5.089835	P <
-1.997816	P </s>
-1.315536	P <w>	0.04759979
-3.747412	P =	-1.035053
-3.533532	P ?	-0.6952946
-5.089835	P @
-1.701023	P A	-1.785956
-2.753375	P B	-1.007728
-1.817993	P C	-1.994241
-1.876582	P D	-1.730528
-1.825962	P E	-1.571624
-2.636516	P F	-1.446382
-2.378027	P G	-1.513894
-2.247225	P H	-1.334019
-2.125575	P I	-1.271567
-3.545766	P J	-0.8229203
-3.270291	P K	-0.5605163
-2.119023	P L	-1.611466
-1.79603	P M	-2.074709
-3.135592	P N	-0.7792099
-1.868942	P O	-1.838696
-2.121351	P P	-1.888826
-3.943707	P Q	-0.2744957
-1.733426	P R	-1.390904
-1.880856	P S	-1.718359
-2.379717	P T	-1.441436
-2.367201	P U	-1.121651
-2.7998	P V	-1.105436
-3.456366	P W	-0.7272927
-3.943707	P X	-0.08778304
-3.276921	P Y	-0.5870144
-3.913743	P Z	-0.3858123
-4.612713	P [	-0.2695277
-3.885715	P ]	0.1488547
-3.399638	P _	-0.4379975
-4.612713	P `	-0.6618143
-0.7964498	P a	-1.298258
-4.186745	P b	-0.1854948
-3.943707	P c	-0.1532792
-4.048442	P d	-0.3459967
